{"learner":{"attributes":{},"feature_names":[],"feature_types":[],"gradient_booster":{"model":{"cats":{"enc":[],"feature_segments":[],"sorted_idx":[]},"gbtree_model_param":{"num_parallel_tree":"1","num_trees":"100"},"iteration_indptr":[0,1,2,3,4,5,6,7,8,9,10,11,12,13,14,15,16,17,18,19,20,21,22,23,24,25,26,27,28,29,30,31,32,33,34,35,36,37,38,39,40,41,42,43,44,45,46,47,48,49,50,51,52,53,54,55,56,57,58,59,60,61,62,63,64,65,66,67,68,69,70,71,72,73,74,75,76,77,78,79,80,81,82,83,84,85,86,87,88,89,90,91,92,93,94,95,96,97,98,99,100],"tree_info":[0,0,0,0,0,0,0,0,0,0,0,0,0,0,0,0,0,0,0,0,0,0,0,0,0,0,0,0,0,0,0,0,0,0,0,0,0,0,0,0,0,0,0,0,0,0,0,0,0,0,0,0,0,0,0,0,0,0,0,0,0,0,0,0,0,0,0,0,0,0,0,0,0,0,0,0,0,0,0,0,0,0,0,0,0,0,0,0,0,0,0,0,0,0,0,0,0,0,0,0],"trees":[{"base_weights":[-5.171282E-9,-8.8274825E-1,3.206503E0,-1.034662E0,-3.6367032E-1,4.3916383E0,2.1639476E0,-1.0650373E0,-3.8784835E-1,-6.472193E-1,4.575552E-1,2.9936903E0,5.2204328E0,1.5918235E0,3.2922666E0,-1.0762188E0,2.6849556E-1,1.9763676E0,-5.9761715E-1,-8.4930855E-1,-4.1809818E-1,7.573485E-1,-3.8068852E-1,3.9743297E0,1.5458667E0,1.6845692E0,4.1311665E0,2.6658826E0,1.0412178E0,3.8012362E0,1.6142879E0,-6.370226E-1,-1.0918034E0,4.838248E-1,-4.1495615E-1,9.1059154E-1,-3.484056E-2,-6.792412E-1,3.623658E-1,5.2449954E-1,-9.154845E-1,-5.137056E-1,6.2382013E-2,9.936171E-1,-1.0932625E-1,3.5935798E-1,-5.810104E-1,4.2030025E0,-8.633385E-2,-2.856782E-1,1.926023E0,4.5493956E0,2.5555108E0,1.19862E0,3.161743E0,7.161656E-1,2.5442603E0,3.8988307E0,1.8888368E-1,-1.040733E-1,2.098924E0,-2.1420857E-1,8.840055E-2,-3.3949172E-1,-2.8634536E-1,1.5972137E-1,-2.6634997E-1,-7.4973725E-2,-2.6715595E-1,-7.1114734E-2,2.583909E-1,-2.167694E-1,4.0675417E-1,-3.3801138E-1,-2.505507E-1,-1.8112169E-1,9.0129E-2,-9.431882E-2,3.5567966E-1,3.1976268E-1,-1.0000371E-1,2.4493532E-1,-1.3204448E-1,-2.5243288E-1,1.0792721E-1,1.2981489E0,2.2154962E-1,1.8888368E-1,-2.490857E-1,8.4928924E-1,2.4264298E-1,1.4218158E0,4.057766E-1,9.0574706E-1,5.888447E-2,5.0781333E-1,-1.4312154E-1,1.0464076E0,1.8278265E-1,9.533699E-2,4.5685446E-1,8.4375745E-1,-3.484056E-2,1.198343E0,2.8274897E-1,1.8888368E-1,-2.167694E-1,7.683071E-1,1.08709745E-1],"categories":[],"categories_nodes":[],"categories_segments":[],"categories_sizes":[],"default_left":[0,0,0,0,0,0,0,0,0,0,0,0,0,0,0,0,0,0,0,0,0,0,0,0,0,0,0,0,0,0,0,0,0,0,0,0,0,0,0,0,0,0,0,0,0,0,0,0,0,0,0,0,0,0,0,0,0,0,0,0,0,0,0,0,0,0,0,0,0,0,0,0,0,0,0,0,0,0,0,0,0,0,0,0,0,0,0,0,0,0,0,0,0,0,0,0,0,0,0,0,0,0,0,0,0,0,0,0,0],"id":0,"left_children":[1,3,5,7,9,11,13,15,17,19,21,23,25,27,29,31,33,35,37,39,41,43,45,47,49,-1,51,53,55,57,59,61,63,-1,65,-1,-1,67,69,71,73,75,77,79,81,-1,83,85,-1,87,89,91,93,95,97,99,101,103,-1,105,107,-1,-1,-1,-1,-1,-1,-1,-1,-1,-1,-1,-1,-1,-1,-1,-1,-1,-1,-1,-1,-1,-1,-1,-1,-1,-1,-1,-1,-1,-1,-1,-1,-1,-1,-1,-1,-1,-1,-1,-1,-1,-1,-1,-1,-1,-1,-1,-1],"loss_changes":[3.6568296E3,7.950665E1,3.350818E2,1.4973328E1,5.4061768E1,1.344668E2,9.180963E1,1.143396E1,1.9382252E1,7.6112213E0,1.5327804E1,6.564392E1,1.1199463E1,5.7363983E1,3.6263977E1,4.3793335E0,7.114542E0,7.4943485E0,2.9476929E0,8.702988E0,3.8265228E0,9.203577E0,5.8917236E0,2.9968842E1,1.5905891E1,0E0,4.8893433E0,2.0818756E1,3.1825508E1,9.107605E0,1.1288113E1,2.2055073E0,2.8289795E0,0E0,2.912504E0,0E0,0E0,2.6912985E0,1.2072148E0,5.9481254E0,5.2905273E-1,5.239092E0,6.551581E0,3.7112885E0,3.5492842E0,0E0,4.0400443E0,8.878601E0,0E0,2.8464334E0,1.6305313E1,4.8398743E0,7.6534004E0,9.214448E0,1.842015E1,1.8160236E1,8.7866745E0,6.4277344E0,0E0,2.214213E0,7.4300194E0,0E0,0E0,0E0,0E0,0E0,0E0,0E0,0E0,0E0,0E0,0E0,0E0,0E0,0E0,0E0,0E0,0E0,0E0,0E0,0E0,0E0,0E0,0E0,0E0,0E0,0E0,0E0,0E0,0E0,0E0,0E0,0E0,0E0,0E0,0E0,0E0,0E0,0E0,0E0,0E0,0E0,0E0,0E0,0E0,0E0,0E0,0E0,0E0],"parents":[2147483647,0,0,1,1,2,2,3,3,4,4,5,5,6,6,7,7,8,8,9,9,10,10,11,11,12,12,13,13,14,14,15,15,16,16,17,17,18,18,19,19,20,20,21,21,22,22,23,23,24,24,26,26,27,27,28,28,29,29,30,30,31,31,32,32,34,34,37,37,38,38,39,39,40,40,41,41,42,42,43,43,44,44,46,46,47,47,49,49,50,50,51,51,52,52,53,53,54,54,55,55,56,56,57,57,59,59,60,60],"right_children":[2,4,6,8,10,12,14,16,18,20,22,24,26,28,30,32,34,36,38,40,42,44,46,48,50,-1,52,54,56,58,60,62,64,-1,66,-1,-1,68,70,72,74,76,78,80,82,-1,84,86,-1,88,90,92,94,96,98,100,102,104,-1,106,108,-1,-1,-1,-1,-1,-1,-1,-1,-1,-1,-1,-1,-1,-1,-1,-1,-1,-1,-1,-1,-1,-1,-1,-1,-1,-1,-1,-1,-1,-1,-1,-1,-1,-1,-1,-1,-1,-1,-1,-1,-1,-1,-1,-1,-1,-1,-1,-1],"split_conditions":[1.17899E0,1E0,2.7604E-4,1E0,1.8820667E3,1.982771E1,1E0,1E0,3.75E-1,1.3E1,5.832367E1,5E0,4E0,1.3407E3,2.6666667E-2,4.7058824E-1,4.437319E-1,3.9594892E-1,7.05E1,3.75E-1,1E0,3E0,7.222222E-1,3.3749167E3,8.4666664E1,1.6845692E0,1.92E1,1.0600892E1,1E0,9E0,7.922078E-1,6E0,3E0,4.838248E-1,2E0,9.1059154E-1,-3.484056E-2,1.95E1,1.72375E2,4E0,3E0,2E0,7E0,9.897959E-1,3E0,3.5935798E-1,5.8E1,4.0350877E-2,-8.633385E-2,2E0,5.4E1,1.1E1,8.4615386E-1,3.901099E-2,7E0,1.543344E1,3.2413792E-2,1.6E1,1.8888368E-1,1.41005335E1,1.625E2,-2.1420857E-1,8.840055E-2,-3.3949172E-1,-2.8634536E-1,1.5972137E-1,-2.6634997E-1,-7.4973725E-2,-2.6715595E-1,-7.1114734E-2,2.583909E-1,-2.167694E-1,4.0675417E-1,-3.3801138E-1,-2.505507E-1,-1.8112169E-1,9.0129E-2,-9.431882E-2,3.5567966E-1,3.1976268E-1,-1.0000371E-1,2.4493532E-1,-1.3204448E-1,-2.5243288E-1,1.0792721E-1,1.2981489E0,2.2154962E-1,1.8888368E-1,-2.490857E-1,8.4928924E-1,2.4264298E-1,1.4218158E0,4.057766E-1,9.0574706E-1,5.888447E-2,5.0781333E-1,-1.4312154E-1,1.0464076E0,1.8278265E-1,9.533699E-2,4.5685446E-1,8.4375745E-1,-3.484056E-2,1.198343E0,2.8274897E-1,1.8888368E-1,-2.167694E-1,7.683071E-1,1.08709745E-1],"split_indices":[22,18,3,20,28,22,18,9,23,24,2,0,0,28,6,23,5,5,8,23,31,21,23,25,1,0,8,22,16,26,23,4,0,0,26,0,0,2,1,29,24,7,30,23,1,0,24,6,0,26,29,0,23,6,0,22,6,0,0,22,1,0,0,0,0,0,0,0,0,0,0,0,0,0,0,0,0,0,0,0,0,0,0,0,0,0,0,0,0,0,0,0,0,0,0,0,0,0,0,0,0,0,0,0,0,0,0,0,0],"split_type":[0,0,0,0,0,0,0,0,0,0,0,0,0,0,0,0,0,0,0,0,0,0,0,0,0,0,0,0,0,0,0,0,0,0,0,0,0,0,0,0,0,0,0,0,0,0,0,0,0,0,0,0,0,0,0,0,0,0,0,0,0,0,0,0,0,0,0,0,0,0,0,0,0,0,0,0,0,0,0,0,0,0,0,0,0,0,0,0,0,0,0,0,0,0,0,0,0,0,0,0,0,0,0,0,0,0,0,0,0],"sum_hessian":[1.2899218E3,1.01203406E3,2.7788763E2,7.821393E2,2.298948E2,1.2854755E2,1.4934009E2,7.464389E2,3.570039E1,1.7104802E2,5.8846794E1,4.9562077E1,7.898547E1,1.00693405E2,4.8646683E1,7.4042346E2,6.01545E0,2.2231011E0,3.3477287E1,8.944713E1,8.160089E1,4.3415855E1,1.5430937E1,2.8508003E1,2.1054075E1,5.4923676E1,2.40618E1,3.2823433E1,6.786997E1,3.635424E1,1.2292441E1,2.6807983E1,7.136155E2,1.5692478E0,4.4462023E0,1.1769359E0,1.0461652E0,3.1123415E1,2.3538718E0,3.7923489E0,8.565478E1,6.800074E1,1.3600148E1,3.400037E1,9.415487E0,1.1769359E0,1.4254002E1,2.7069525E1,1.4384772E0,3.6615782E0,1.7392496E1,1.7523268E1,6.5385327E0,9.153946E0,2.3669489E1,5.7016006E1,1.0853964E1,3.5046535E1,1.3077066E0,2.8769543E0,9.415487E0,2.4977196E1,1.8307891E0,5.4753674E2,1.6607874E2,1.4384772E0,3.007725E0,1.0984735E1,2.0138681E1,1.3077066E0,1.0461652E0,1.5692478E0,2.2231011E0,2.000791E1,6.5646866E1,6.1462208E1,6.5385327E0,1.0723193E1,2.8769543E0,3.243112E1,1.5692478E0,2.0923305E0,7.3231564E0,1.1246276E1,3.007725E0,2.589259E1,1.1769359E0,1.3077066E0,2.3538718E0,8.761634E0,8.630863E0,1.6084791E1,1.4384772E0,5.2308264E0,1.3077066E0,7.0616155E0,2.0923305E0,2.0661764E1,3.007725E0,3.9100426E1,1.7915579E1,9.807799E0,1.0461652E0,3.360806E1,1.4384772E0,1.3077066E0,1.5692478E0,7.0616155E0,2.3538718E0],"tree_param":{"num_deleted":"0","num_feature":"35","num_nodes":"109","size_leaf_vector":"1"}},{"base_weights":[-1.030736E-1,-7.9881316E-1,1.1853901E0,-9.632521E-1,-3.1647444E-1,6.867851E-1,1.3524214E0,-9.978925E-1,-3.1267777E-1,-6.1643344E-1,1.4345698E-1,9.443261E-1,-1.5294284E-1,1.7798423E0,1.2181046E0,-9.1829014E-1,-3.3812934E-1,1.2601092E0,-5.1128495E-1,2.1763495E-1,-6.654076E-1,2.2760461E-1,-7.474108E-1,1.0282595E0,-2.7104104E-1,6.5800774E-1,-5.871952E-1,1.1619534E0,1.8690208E0,1.4039769E0,8.8081354E-1,-7.9706013E-1,-3.3722442E-1,5.302049E-1,-2.9926717E-2,-3.081057E-1,-2.6733017E-1,-2.9776666E-1,1.0854455E0,-8.2495904E-1,-4.6132204E-1,3.121813E-1,-6.4186764E-1,-2.5092823E-2,-8.3807194E-1,1.098897E0,-3.7559417E-1,1.382035E-1,-2.3800369E-1,-2.6655614E-1,1.1802157E0,-8.5891086E-1,1.10514544E-1,1.3454702E0,-1.0584671E-1,1.907933E0,7.3431844E-1,3.0119112E-1,1.4479036E0,1.5814183E0,6.902845E-1,-2.9414618E-1,-1.7235047E-1,2.8572083E-1,-1.7510806E-1,1.0873071E-2,-2.1885253E-1,5.4498744E-1,-4.330864E-2,-3.0678353E-1,-2.009766E-1,5.2540164E-2,-1.6838816E-1,-2.667406E-2,1.3970754E-1,-2.895879E-1,-1.1338937E-2,-2.85036E-1,-3.2948274E-2,2.9470754E-1,7.1135235E-1,1.4518052E-1,-2.529283E-1,-1.2630169E-1,1.8783383E-1,4.7129825E-1,-1.04392484E-1,-2.8216895E-1,-7.788496E-2,-2.739983E-1,3.15746E-1,4.5764375E-1,1.172461E-1,2.5513807E-1,5.8378667E-1,3.7199858E-1,3.0537112E-2,2.641979E-1,-1.5523899E-1,3.9875016E-1,6.0396516E-1,5.193758E-1,-1.21165246E-1,2.4783786E-1,-3.883216E-2],"categories":[],"categories_nodes":[],"categories_segments":[],"categories_sizes":[],"default_left":[0,0,0,0,0,0,0,0,0,0,0,0,0,0,0,0,0,0,0,0,0,0,0,0,0,0,0,0,0,0,0,0,0,0,0,0,0,0,0,0,0,0,0,0,0,0,0,0,0,0,0,0,0,0,0,0,0,0,0,0,0,0,0,0,0,0,0,0,0,0,0,0,0,0,0,0,0,0,0,0,0,0,0,0,0,0,0,0,0,0,0,0,0,0,0,0,0,0,0,0,0,0,0,0,0],"id":1,"left_children":[1,3,5,7,9,11,13,15,17,19,21,23,25,27,29,31,-1,33,35,37,39,41,43,45,47,49,51,53,55,57,59,61,-1,-1,-1,-1,63,65,67,69,71,73,75,-1,77,79,81,83,-1,-1,85,87,89,91,-1,93,95,97,99,101,103,-1,-1,-1,-1,-1,-1,-1,-1,-1,-1,-1,-1,-1,-1,-1,-1,-1,-1,-1,-1,-1,-1,-1,-1,-1,-1,-1,-1,-1,-1,-1,-1,-1,-1,-1,-1,-1,-1,-1,-1,-1,-1,-1,-1],"loss_changes":[1.1452112E3,6.5485596E1,3.6380066E1,1.3617676E1,2.9388407E1,2.4894905E1,1.7037476E1,4.996155E0,1.0859871E1,5.40329E0,6.5155354E0,9.227325E0,1.0148956E1,2.1164856E0,1.49201355E1,8.291107E0,0E0,2.9046273E0,3.468277E0,3.8536024E0,3.586811E0,5.9441476E0,3.8356495E-1,8.570534E0,1.4900888E0,9.237333E0,3.6178231E0,3.9380322E0,1.5291443E0,7.5309753E0,1.1488731E1,9.03717E0,0E0,0E0,0E0,0E0,8.870599E0,8.5372436E-1,3.1004887E0,1.3714867E0,3.6441422E0,4.46572E0,1.3802416E0,0E0,4.2782593E-1,9.321472E0,2.2910945E0,1.4839323E0,0E0,0E0,5.329774E0,4.1584682E-1,6.8389716E0,1.3491116E0,0E0,8.997345E-1,1.0975518E0,4.0434055E0,7.9231873E0,6.462776E0,8.555229E0,0E0,0E0,0E0,0E0,0E0,0E0,0E0,0E0,0E0,0E0,0E0,0E0,0E0,0E0,0E0,0E0,0E0,0E0,0E0,0E0,0E0,0E0,0E0,0E0,0E0,0E0,0E0,0E0,0E0,0E0,0E0,0E0,0E0,0E0,0E0,0E0,0E0,0E0,0E0,0E0,0E0,0E0,0E0,0E0],"parents":[2147483647,0,0,1,1,2,2,3,3,4,4,5,5,6,6,7,7,8,8,9,9,10,10,11,11,12,12,13,13,14,14,15,15,17,17,18,18,19,19,20,20,21,21,22,22,23,23,24,24,25,25,26,26,27,27,28,28,29,29,30,30,31,31,36,36,37,37,38,38,39,39,40,40,41,41,42,42,44,44,45,45,46,46,47,47,50,50,51,51,52,52,53,53,55,55,56,56,57,57,58,58,59,59,60,60],"right_children":[2,4,6,8,10,12,14,16,18,20,22,24,26,28,30,32,-1,34,36,38,40,42,44,46,48,50,52,54,56,58,60,62,-1,-1,-1,-1,64,66,68,70,72,74,76,-1,78,80,82,84,-1,-1,86,88,90,92,-1,94,96,98,100,102,104,-1,-1,-1,-1,-1,-1,-1,-1,-1,-1,-1,-1,-1,-1,-1,-1,-1,-1,-1,-1,-1,-1,-1,-1,-1,-1,-1,-1,-1,-1,-1,-1,-1,-1,-1,-1,-1,-1,-1,-1,-1,-1,-1,-1],"split_conditions":[1E0,1E0,8.868449E0,1E0,1.1976666E3,1E0,1E0,1E0,3.75E-1,5E-1,4.1065574E-2,3.974359E-2,1.5949333E3,2E0,1.8518519E-2,1E0,-3.3812934E-1,3.9594892E-1,6E0,8.975E1,1.3E1,2.145E2,1.3568667E3,1E0,4E0,1.9125E1,5.092992E1,5.5E1,2.2727273E-2,1.5972222E1,6.24631E2,1.3E1,-3.3722442E-1,5.302049E-1,-2.9926717E-2,-3.081057E-1,3.25E1,4.7E1,3E0,7.3913044E-1,1.5E1,1.4736842E-2,5E0,-2.5092823E-2,7.5E1,5.84E2,3E0,5.1333334E-2,-2.3800369E-1,-2.6655614E-1,2.7586207E-2,7E0,8.8235295E-1,1E0,-1.0584671E-1,1.1376787E1,9E0,4E0,7E0,9.047619E-1,1E0,-2.9414618E-1,-1.7235047E-1,2.8572083E-1,-1.7510806E-1,1.0873071E-2,-2.1885253E-1,5.4498744E-1,-4.330864E-2,-3.0678353E-1,-2.009766E-1,5.2540164E-2,-1.6838816E-1,-2.667406E-2,1.3970754E-1,-2.895879E-1,-1.1338937E-2,-2.85036E-1,-3.2948274E-2,2.9470754E-1,7.1135235E-1,1.4518052E-1,-2.529283E-1,-1.2630169E-1,1.8783383E-1,4.7129825E-1,-1.04392484E-1,-2.8216895E-1,-7.788496E-2,-2.739983E-1,3.15746E-1,4.5764375E-1,1.172461E-1,2.5513807E-1,5.8378667E-1,3.7199858E-1,3.0537112E-2,2.641979E-1,-1.5523899E-1,3.9875016E-1,6.0396516E-1,5.193758E-1,-1.21165246E-1,2.4783786E-1,-3.883216E-2],"split_indices":[9,18,22,20,25,17,0,17,23,23,6,6,28,30,6,16,0,5,1,1,24,8,25,20,0,2,2,24,3,2,28,1,0,0,0,0,1,1,26,23,24,6,0,0,24,8,0,6,0,0,6,26,23,16,0,22,24,26,30,23,12,0,0,0,0,0,0,0,0,0,0,0,0,0,0,0,0,0,0,0,0,0,0,0,0,0,0,0,0,0,0,0,0,0,0,0,0,0,0,0,0,0,0,0,0],"split_type":[0,0,0,0,0,0,0,0,0,0,0,0,0,0,0,0,0,0,0,0,0,0,0,0,0,0,0,0,0,0,0,0,0,0,0,0,0,0,0,0,0,0,0,0,0,0,0,0,0,0,0,0,0,0,0,0,0,0,0,0,0,0,0,0,0,0,0,0,0,0,0,0,0,0,0,0,0,0,0,0,0,0,0,0,0,0,0,0,0,0,0,0,0,0,0,0,0,0,0,0,0,0,0,0,0],"sum_hessian":[1.2754606E3,8.2848083E2,4.4697977E2,6.171015E2,2.1137933E2,1.13445435E2,3.3353433E2,5.8539764E2,3.1703848E1,1.2773354E2,8.364579E1,8.672322E1,2.6722208E1,7.682182E1,2.5671252E2,3.6724695E2,2.1815067E2,2.9553616E0,2.8748487E1,6.893186E0,1.20840355E2,7.710709E1,6.538699E0,8.126501E1,5.458217E0,9.139416E0,1.7582792E1,1.1458575E1,6.536324E1,1.634674E2,9.324512E1,2.3417151E2,1.3307544E2,1.9342281E0,1.0211334E0,8.201077E0,2.054741E1,4.7368174E0,2.1563683E0,6.611234E1,5.472801E1,7.085566E1,6.251432E0,1.0168083E0,5.5218906E0,7.757872E1,3.6862898E0,3.4726596E0,1.9855577E0,2.1299784E0,7.009437E0,1.248831E1,5.0944824E0,1.0320058E1,1.1385173E0,6.2537224E1,2.8260221E0,6.5628467E0,1.5690456E2,1.837548E1,7.486964E1,1.2650434E2,1.07667175E2,3.8177345E0,1.6729675E1,3.187168E0,1.5496497E0,1.0530931E0,1.1032753E0,2.6602108E1,3.9510235E1,7.327393E0,4.7400616E1,1.9728771E1,5.112689E1,3.6820498E0,2.569382E0,4.521534E0,1.000357E0,7.2692345E1,4.886376E0,1.2862608E0,2.400029E0,1.6819936E0,1.7906661E0,5.559732E0,1.4497052E0,1.0489669E1,1.998641E0,2.455728E0,2.6387544E0,8.179739E0,2.1403189E0,2.9815743E0,5.955565E1,1.0367829E0,1.7892393E0,3.7984488E0,2.7643979E0,1.3243878E2,2.4465767E1,1.7204958E1,1.1705227E0,6.4219604E1,1.0650032E1],"tree_param":{"num_deleted":"0","num_feature":"35","num_nodes":"105","size_leaf_vector":"1"}},{"base_weights":[-1.0269739E-1,-7.077313E-1,7.834015E-1,-8.8919616E-1,-2.544531E-1,1.1630093E0,6.0906875E-1,-1.6071087E-1,-9.255239E-1,-5.1333815E-1,1.184579E-1,1.3318818E0,7.510637E-1,1.2063193E0,4.7401175E-1,2.3145777E-1,-8.8226527E-1,-1.0322554E0,-7.923672E-1,-6.350838E-1,-1.8085082E-1,-6.0662553E-2,3.7038112E-1,-6.751938E-2,1.3593397E0,8.550684E-1,-1.2773429E-1,1.2535713E0,-1.522199E-1,2.9131994E-1,7.959642E-1,5.256277E-1,-2.4906954E-1,-2.9338473E-1,-2.5820747E-2,-1.0532738E0,-6.2261146E-1,-6.730855E-1,-3.233413E-1,-6.7030245E-1,5.4702735E-1,-3.8575828E-1,3.944009E-1,2.7766833E-1,-3.162497E-1,2.4573404E-1,6.309549E-1,1.3754245E0,3.931957E-2,-2.2298817E-1,9.196509E-1,2.7759525E-1,-8.757288E-1,1.2906338E0,-1.02024846E-1,4.2363244E-1,-2.663984E-1,6.119693E-1,1.2921221E0,2.2528905E-1,-2.0753077E-1,-3.1833902E-1,-7.295708E-2,-2.3983604E-1,2.3389815E-1,-1.5429562E-1,-3.210119E-1,-2.2614488E-1,-8.534849E-2,-2.4149051E-2,2.698377E-1,2.452868E-2,-2.057673E-1,2.864431E-1,-2.4204926E-1,2.0654352E-1,-4.5995496E-2,-1.7967793E-1,1.0035171E-1,2.780909E-1,-3.4689322E-2,4.5991153E-1,3.499079E-1,-2.2554958E-2,2.980153E-1,-3.149736E-1,-7.596429E-2,1.4122473E-1,4.081953E-1,1.4132454E-1,-1.7100689E-1,-1.359942E-1,6.6881165E-2,3.4449136E-1,1.045671E-1,4.9874198E-2,4.3275794E-1],"categories":[],"categories_nodes":[],"categories_segments":[],"categories_sizes":[],"default_left":[0,0,0,0,0,0,0,0,0,0,0,0,0,0,0,0,0,0,0,0,0,0,0,0,0,0,0,0,0,0,0,0,0,0,0,0,0,0,0,0,0,0,0,0,0,0,0,0,0,0,0,0,0,0,0,0,0,0,0,0,0,0,0,0,0,0,0,0,0,0,0,0,0,0,0,0,0,0,0,0,0,0,0,0,0,0,0,0,0,0,0,0,0,0,0,0,0],"id":2,"left_children":[1,3,5,7,9,11,13,15,17,19,21,23,25,27,29,31,33,35,37,39,41,43,45,-1,47,49,51,53,-1,55,57,59,-1,-1,-1,61,63,65,-1,67,69,71,73,75,77,79,-1,81,-1,-1,83,-1,85,87,-1,89,91,93,95,-1,-1,-1,-1,-1,-1,-1,-1,-1,-1,-1,-1,-1,-1,-1,-1,-1,-1,-1,-1,-1,-1,-1,-1,-1,-1,-1,-1,-1,-1,-1,-1,-1,-1,-1,-1,-1,-1],"loss_changes":[6.227732E2,5.65459E1,3.0487488E1,1.2884399E1,1.924559E1,9.243576E0,2.565474E1,7.165999E0,5.845825E0,4.6406326E0,3.733547E0,4.715515E0,4.2319756E0,5.439331E0,1.5462013E1,5.6619396E0,5.9164524E-1,1.5567322E0,6.5238647E0,3.9301949E0,4.0285125E0,4.3184876E0,6.895024E0,0E0,1.8250427E0,4.860485E0,5.255563E0,3.865471E0,0E0,1.2790769E1,7.9747543E0,4.281495E0,0E0,0E0,0E0,1.288269E0,4.339721E0,9.08139E0,0E0,2.4781227E0,7.418501E-1,3.529517E0,6.9177847E0,3.9275804E0,5.413213E0,8.266743E0,0E0,1.5098419E0,0E0,0E0,2.9603157E0,0E0,1.47645E-1,2.6260757E0,0E0,6.8337574E0,3.1703346E0,9.763609E0,4.006279E0,0E0,0E0,0E0,0E0,0E0,0E0,0E0,0E0,0E0,0E0,0E0,0E0,0E0,0E0,0E0,0E0,0E0,0E0,0E0,0E0,0E0,0E0,0E0,0E0,0E0,0E0,0E0,0E0,0E0,0E0,0E0,0E0,0E0,0E0,0E0,0E0,0E0,0E0],"parents":[2147483647,0,0,1,1,2,2,3,3,4,4,5,5,6,6,7,7,8,8,9,9,10,10,11,11,12,12,13,13,14,14,15,15,16,16,17,17,18,18,19,19,20,20,21,21,22,22,24,24,25,25,26,26,27,27,29,29,30,30,31,31,35,35,36,36,37,37,39,39,40,40,41,41,42,42,43,43,44,44,45,45,47,47,50,50,52,52,53,53,55,55,56,56,57,57,58,58],"right_children":[2,4,6,8,10,12,14,16,18,20,22,24,26,28,30,32,34,36,38,40,42,44,46,-1,48,50,52,54,-1,56,58,60,-1,-1,-1,62,64,66,-1,68,70,72,74,76,78,80,-1,82,-1,-1,84,-1,86,88,-1,90,92,94,96,-1,-1,-1,-1,-1,-1,-1,-1,-1,-1,-1,-1,-1,-1,-1,-1,-1,-1,-1,-1,-1,-1,-1,-1,-1,-1,-1,-1,-1,-1,-1,-1,-1,-1,-1,-1,-1,-1],"split_conditions":[1E0,1E0,2.7E1,4.7058824E-1,4.1433656E-1,2.513336E-2,7.539683E-3,2.7327032E1,1E0,2E0,3.0934167E3,1.08133335E1,1.82E1,4.859086E-3,1E0,1E0,4.42E2,1E0,1E0,6.2333332E1,1E0,3E0,1E0,-6.751938E-2,1E0,4.3481455E0,2E0,8.568333E2,-1.522199E-1,9E1,4.509E3,1E0,-2.4906954E-1,-2.9338473E-1,-2.5820747E-2,3E0,2E0,1E0,-3.233413E-1,9.5E-1,3E0,6.5833336E1,3E0,9.7727275E-1,1.4466667E2,3.688889E1,6.309549E-1,1.6E1,3.931957E-2,-2.2298817E-1,6.111111E-1,2.7759525E-1,3E0,5.77096E0,-1.02024846E-1,2.4074074E-2,1.5533333E2,1.4003044E-2,1.1382114E-2,2.2528905E-1,-2.0753077E-1,-3.1833902E-1,-7.295708E-2,-2.3983604E-1,2.3389815E-1,-1.5429562E-1,-3.210119E-1,-2.2614488E-1,-8.534849E-2,-2.4149051E-2,2.698377E-1,2.452868E-2,-2.057673E-1,2.864431E-1,-2.4204926E-1,2.0654352E-1,-4.5995496E-2,-1.7967793E-1,1.0035171E-1,2.780909E-1,-3.4689322E-2,4.5991153E-1,3.499079E-1,-2.2554958E-2,2.980153E-1,-3.149736E-1,-7.596429E-2,1.4122473E-1,4.081953E-1,1.4132454E-1,-1.7100689E-1,-1.359942E-1,6.6881165E-2,3.4449136E-1,1.045671E-1,4.9874198E-2,4.3275794E-1],"split_indices":[9,18,29,23,5,6,6,2,0,0,28,2,8,3,18,17,25,31,17,8,34,1,31,0,32,22,0,1,0,29,25,16,0,0,0,7,8,16,0,23,30,1,21,23,1,2,0,24,0,0,23,0,30,22,0,3,8,6,6,0,0,0,0,0,0,0,0,0,0,0,0,0,0,0,0,0,0,0,0,0,0,0,0,0,0,0,0,0,0,0,0,0,0,0,0,0,0],"split_type":[0,0,0,0,0,0,0,0,0,0,0,0,0,0,0,0,0,0,0,0,0,0,0,0,0,0,0,0,0,0,0,0,0,0,0,0,0,0,0,0,0,0,0,0,0,0,0,0,0,0,0,0,0,0,0,0,0,0,0,0,0,0,0,0,0,0,0,0,0,0,0,0,0,0,0,0,0,0,0,0,0,0,0,0,0,0,0,0,0,0,0,0,0,0,0,0,0],"sum_hessian":[1.1595964E3,6.892045E2,4.703919E2,4.9148306E2,1.9772145E2,1.4625406E2,3.2413782E2,2.3602493E1,4.6788058E2,1.1648074E2,8.124071E1,1.02146904E2,4.4107155E1,5.8316776E1,2.6582104E2,1.5731541E1,7.8709526E0,2.5596227E2,2.119183E2,8.4594864E1,3.188588E1,4.7924797E1,3.3315907E1,1.6454979E0,1.005014E2,3.946368E1,4.643476E0,5.7013275E1,1.3035043E0,1.708035E2,9.5017555E1,1.2713761E1,3.0177786E0,6.822745E0,1.0482078E0,2.4197552E2,1.3986738E1,1.5182855E2,6.0089756E1,8.256788E1,2.0269868E0,2.3754E1,8.131881E0,2.0586815E1,2.7337982E1,3.2145382E1,1.1705271E0,9.908405E1,1.4173524E0,1.1244829E0,3.83392E1,1.8300316E0,2.8134446E0,5.590331E1,1.109966E0,1.3824648E2,3.2557026E1,7.094265E1,2.4074903E1,1.1051338E1,1.6624233E0,2.3934445E2,2.6310775E0,1.28021345E1,1.1846037E0,1.1009165E2,4.1736893E1,6.709113E1,1.547674E1,1.0064833E0,1.0205035E0,9.571669E0,1.4182331E1,5.684866E0,2.4470146E0,1.02342415E1,1.0352573E1,1.9114586E1,8.223396E0,1.0599087E1,2.1546295E1,5.288287E1,4.6201187E1,2.6441257E0,3.5695072E1,1.6618758E0,1.1515687E0,5.0061164E0,5.089719E1,1.3244771E2,5.798769E0,2.3611546E1,8.945482E0,2.225987E1,4.868278E1,3.0852334E0,2.098967E1],"tree_param":{"num_deleted":"0","num_feature":"35","num_nodes":"97","size_leaf_vector":"1"}},{"base_weights":[-9.5156685E-2,-6.2025565E-1,5.589649E-1,-8.1776816E-1,-1.9908237E-1,8.745301E-1,4.1028708E-1,-8.6426663E-1,-1.4562804E-1,-4.2311248E-1,8.3662145E-2,5.903449E-1,1.1208558E0,4.8783976E-1,3.530797E-2,-7.5663066E-1,-3.1820083E-1,-2.721684E-1,7.543217E-2,-2.962286E-1,-3.4800512E-1,1.9156152E-1,-2.1865343E-1,1.1574959E0,3.8026595E-1,9.355492E-1,1.4006064E0,9.028636E-1,4.023238E-1,7.3013234E-1,-8.739164E-2,-6.083204E-1,-3.1676736E-1,9.276031E-1,-2.604126E-1,6.7133456E-1,-3.9213946E-1,-2.6320525E-2,5.624232E-1,5.0080204E-1,-4.4320813E-1,1.279404E0,-5.4724287E-2,1.2871139E0,1.8277213E-1,1.1189932E0,3.8480487E-1,1.4388357E0,5.478683E-2,7.3415786E-1,1.6402111E0,2.0589015E-1,5.991588E-1,-2.070679E-1,1.0475782E0,9.5207596E-1,-2.4387132E-1,-2.3121202E-1,-9.019482E-2,5.105304E-1,-7.11635E-2,-2.573648E-1,9.089936E-2,4.3645743E-3,3.1630558E-1,-1.5432435E-1,-2.2369403E-2,1.820871E-1,-6.479356E-2,-1.0099692E-1,2.2702439E-1,-2.0106792E-1,2.881014E-1,-2.716077E-1,2.1510215E-2,7.846516E-2,4.4638187E-1,2.3296291E-2,4.342181E-1,9.706374E-2,-3.0664164E-1,3.787798E-1,1.848284E-1,-2.8605467E-2,4.786329E-1,4.491379E-1,1.8750578E-1,2.4707483E-1,-1.4384221E-2,1.2353476E-1,5.3759384E-1,2.1112849E-1,1.2178396E-2,2.0566924E-1,-4.7378667E-2,4.2030722E-1,-9.617587E-2,-1.2496488E-2,3.6212498E-1,-9.7882725E-2,2.57356E-1],"categories":[],"categories_nodes":[],"categories_segments":[],"categories_sizes":[],"default_left":[0,0,0,0,0,0,0,0,0,0,0,0,0,0,0,0,0,0,0,0,0,0,0,0,0,0,0,0,0,0,0,0,0,0,0,0,0,0,0,0,0,0,0,0,0,0,0,0,0,0,0,0,0,0,0,0,0,0,0,0,0,0,0,0,0,0,0,0,0,0,0,0,0,0,0,0,0,0,0,0,0,0,0,0,0,0,0,0,0,0,0,0,0,0,0,0,0,0,0,0,0],"id":3,"left_children":[1,3,5,7,9,11,13,15,17,19,21,23,25,27,29,31,-1,-1,33,-1,35,37,39,41,43,45,47,49,51,53,55,57,-1,59,61,63,65,67,69,71,73,75,-1,77,79,81,83,85,-1,87,89,91,93,-1,95,97,99,-1,-1,-1,-1,-1,-1,-1,-1,-1,-1,-1,-1,-1,-1,-1,-1,-1,-1,-1,-1,-1,-1,-1,-1,-1,-1,-1,-1,-1,-1,-1,-1,-1,-1,-1,-1,-1,-1,-1,-1,-1,-1,-1,-1],"loss_changes":[3.6022046E2,4.8223602E1,2.1555176E1,1.2239441E1,1.1881445E1,9.747673E0,9.270359E0,7.0159607E0,4.5808516E0,4.08576E0,2.76589E0,8.037981E0,2.7613373E0,9.026398E0,4.8219295E0,1.011618E1,0E0,0E0,6.450908E0,0E0,4.481965E0,5.030785E0,3.8460426E0,3.2951317E0,9.330902E0,4.647087E0,1.1008072E0,4.31847E0,8.428055E0,4.5480976E0,8.092895E0,7.983738E0,0E0,6.1321373E0,5.7615047E0,1.0564044E0,3.4764328E0,4.9423165E0,4.2762685E0,3.7677646E0,4.2594614E0,3.2840939E0,0E0,1.7072134E0,7.968118E0,1.9070206E0,8.337798E0,4.043007E-1,0E0,2.6929913E0,6.522026E-1,9.2066555E0,7.300602E0,0E0,3.994153E0,1.7043152E0,4.1655965E0,0E0,0E0,0E0,0E0,0E0,0E0,0E0,0E0,0E0,0E0,0E0,0E0,0E0,0E0,0E0,0E0,0E0,0E0,0E0,0E0,0E0,0E0,0E0,0E0,0E0,0E0,0E0,0E0,0E0,0E0,0E0,0E0,0E0,0E0,0E0,0E0,0E0,0E0,0E0,0E0,0E0,0E0,0E0,0E0],"parents":[2147483647,0,0,1,1,2,2,3,3,4,4,5,5,6,6,7,7,8,8,9,9,10,10,11,11,12,12,13,13,14,14,15,15,18,18,20,20,21,21,22,22,23,23,24,24,25,25,26,26,27,27,28,28,29,29,30,30,31,31,33,33,34,34,35,35,36,36,37,37,38,38,39,39,40,40,41,41,43,43,44,44,45,45,46,46,47,47,49,49,50,50,51,51,52,52,54,54,55,55,56,56],"right_children":[2,4,6,8,10,12,14,16,18,20,22,24,26,28,30,32,-1,-1,34,-1,36,38,40,42,44,46,48,50,52,54,56,58,-1,60,62,64,66,68,70,72,74,76,-1,78,80,82,84,86,-1,88,90,92,94,-1,96,98,100,-1,-1,-1,-1,-1,-1,-1,-1,-1,-1,-1,-1,-1,-1,-1,-1,-1,-1,-1,-1,-1,-1,-1,-1,-1,-1,-1,-1,-1,-1,-1,-1,-1,-1,-1,-1,-1,-1,-1,-1,-1,-1,-1,-1],"split_conditions":[1E0,1E0,2E0,1E0,4.1433656E-1,2.2329348E1,2.6839826E-2,1E0,6E0,3E0,3.5E1,2.4951887E1,4E0,2.3E1,3.07E1,1E0,-3.1820083E-1,-2.721684E-1,3.25E1,-2.962286E-1,3.75E-1,7.9E1,1.494396E-3,3.7333332E-2,8.695652E-3,8.54701E-4,9.55E1,2.7591043E2,1E0,6.048714E0,6.24631E2,3E0,-3.1676736E-1,1.7131578E1,1.8518519E-2,4.475E1,1E0,2E0,2.46935E3,8.695652E-3,6.25E-3,1.5333333E1,-5.4724287E-2,2.6283333E1,1.931425E1,3E0,5.4127083E1,1.4E1,5.478683E-2,2.19E2,2E0,3.3E1,9.459459E-3,-2.070679E-1,3.19032E1,5.8E1,9.4186044E-1,-2.3121202E-1,-9.019482E-2,5.105304E-1,-7.11635E-2,-2.573648E-1,9.089936E-2,4.3645743E-3,3.1630558E-1,-1.5432435E-1,-2.2369403E-2,1.820871E-1,-6.479356E-2,-1.0099692E-1,2.2702439E-1,-2.0106792E-1,2.881014E-1,-2.716077E-1,2.1510215E-2,7.846516E-2,4.4638187E-1,2.3296291E-2,4.342181E-1,9.706374E-2,-3.0664164E-1,3.787798E-1,1.848284E-1,-2.8605467E-2,4.786329E-1,4.491379E-1,1.8750578E-1,2.4707483E-1,-1.4384221E-2,1.2353476E-1,5.3759384E-1,2.1112849E-1,1.2178396E-2,2.0566924E-1,-4.7378667E-2,4.2030722E-1,-9.617587E-2,-1.2496488E-2,3.6212498E-1,-9.7882725E-2,2.57356E-1],"split_indices":[9,18,0,20,5,22,6,17,1,29,8,2,26,24,1,16,0,0,1,0,23,29,3,6,6,3,1,1,10,22,28,0,0,2,6,1,34,21,28,6,3,2,0,2,22,26,2,30,0,1,21,24,3,0,22,1,23,0,0,0,0,0,0,0,0,0,0,0,0,0,0,0,0,0,0,0,0,0,0,0,0,0,0,0,0,0,0,0,0,0,0,0,0,0,0,0,0,0,0,0,0],"split_type":[0,0,0,0,0,0,0,0,0,0,0,0,0,0,0,0,0,0,0,0,0,0,0,0,0,0,0,0,0,0,0,0,0,0,0,0,0,0,0,0,0,0,0,0,0,0,0,0,0,0,0,0,0,0,0,0,0,0,0,0,0,0,0,0,0,0,0,0,0,0,0,0,0,0,0,0,0,0,0,0,0,0,0,0,0,0,0,0,0,0,0,0,0,0,0,0,0,0,0,0,0],"sum_hessian":[1.0467327E3,5.806584E2,4.660743E2,3.9464493E2,1.8601346E2,1.4770082E2,3.1837347E2,3.6884265E2,2.5802286E1,1.0350542E2,8.250805E1,7.015725E1,7.754357E1,2.635628E2,5.4810684E1,2.4139937E2,1.2744328E2,5.106232E0,2.0696053E1,1.0731067E1,9.2774345E1,6.1075836E1,2.143221E1,1.774397E1,5.2413277E1,4.92588E1,2.8284767E1,4.33961E1,2.201667E2,7.4833484E0,4.7327335E1,1.6343532E2,7.796405E1,5.352541E0,1.5343513E1,3.2603831E0,8.951396E1,3.905813E1,2.2017708E1,4.8055167E0,1.6626694E1,1.6305607E1,1.4383657E0,8.386605E0,4.4026672E1,3.6177036E1,1.3081767E1,2.7248192E1,1.0365769E0,3.693989E1,6.4562078E0,1.11219734E2,1.0894696E2,1.1524758E0,6.3308725E0,5.5271416E0,4.1800194E1,1.05989784E2,5.7445534E1,2.938538E0,2.4140027E0,7.1930084E0,8.150504E0,1.5833274E0,1.6770558E0,6.418222E1,2.5331749E1,8.494452E0,3.0563675E1,3.782914E0,1.8234793E1,1.2251077E0,3.580409E0,8.362623E0,8.264071E0,3.1559176E0,1.3149689E1,1.1550643E0,7.2315407E0,4.0075947E1,3.9507253E0,2.6966053E1,9.210982E0,1.0026394E1,3.0553734E0,2.4643442E1,2.6047492E0,3.3102016E1,3.8378737E0,1.1182454E0,5.337962E0,2.6909748E1,8.430999E1,9.7871506E1,1.1075456E1,5.012061E0,1.3188115E0,1.2995628E0,4.2275786E0,3.9546158E1,2.2540379E0],"tree_param":{"num_deleted":"0","num_feature":"35","num_nodes":"101","size_leaf_vector":"1"}},{"base_weights":[-8.160114E-2,-5.3616357E-1,4.1603708E-1,-7.452685E-1,-1.5652883E-1,8.9095145E-1,3.3781743E-1,-9.42137E-1,-5.3952485E-1,-4.899059E-1,-2.3904258E-2,-4.767128E-1,9.6838844E-1,3.979937E-1,3.032132E-1,-1.0126492E0,-6.5418184E-1,1.4231714E0,-5.8033943E-1,2.1088594E-1,-6.0155356E-1,-4.4912046E-1,3.88768E-2,-2.615298E-1,6.9290355E-2,1.0235723E0,-1.4027405E-1,6.3082975E-1,2.1018003E-1,-1.0201194E0,-3.8422767E-2,-7.474133E-1,4.2377886E-1,9.178591E-2,6.052175E-1,-4.483695E-1,-3.063729E-1,5.6355E-1,-2.11962E-1,-8.940993E-1,-4.055824E-1,-7.9298544E-1,1.9993968E-1,3.5648957E-1,-5.872046E-2,1.0628402E0,-9.44617E-2,-2.2358362E-1,1.8390618E-1,7.942137E-1,2.973222E-1,1.1242728E-1,4.90166E-1,-3.0828154E-1,-5.414141E-2,8.369822E-2,-2.4755535E-1,3.9746115E-1,-1.7906955E-1,-8.9423575E-2,-3.0303496E-1,3.0204552E-1,-1.1995967E-1,-2.2865925E-2,-2.831523E-1,3.328468E-2,-1.9786641E-1,-3.0313993E-1,-9.8645315E-2,-2.292751E-1,2.2826228E-1,3.06614E-1,-1.3918226E-2,-8.229631E-2,4.6271406E-2,-6.859479E-3,3.293157E-1,1.837032E-1,3.740292E-1,1.4930475E-1,-1.2974977E-1,-8.863659E-3,1.0548505E-1,-4.4093303E-2,1.9561149E-1],"categories":[],"categories_nodes":[],"categories_segments":[],"categories_sizes":[],"default_left":[0,0,0,0,0,0,0,0,0,0,0,0,0,0,0,0,0,0,0,0,0,0,0,0,0,0,0,0,0,0,0,0,0,0,0,0,0,0,0,0,0,0,0,0,0,0,0,0,0,0,0,0,0,0,0,0,0,0,0,0,0,0,0,0,0,0,0,0,0,0,0,0,0,0,0,0,0,0,0,0,0,0,0,0,0],"id":4,"left_children":[1,3,5,7,9,11,13,15,17,19,21,23,25,-1,27,29,31,33,35,37,39,41,43,-1,-1,45,47,49,51,53,-1,55,57,-1,-1,59,-1,61,-1,63,65,67,69,71,73,75,-1,-1,-1,77,79,81,83,-1,-1,-1,-1,-1,-1,-1,-1,-1,-1,-1,-1,-1,-1,-1,-1,-1,-1,-1,-1,-1,-1,-1,-1,-1,-1,-1,-1,-1,-1,-1,-1],"loss_changes":[2.1527283E2,3.9358948E1,1.6578789E1,1.2468994E1,7.8533297E0,7.2022743E0,1.300251E1,2.6347046E0,1.3563229E1,4.083953E0,3.4427793E0,1.342186E0,3.8490105E0,0E0,1.1443447E1,7.192688E-1,3.8108358E0,1.7254686E0,8.646809E0,2.8864155E0,2.1532955E0,3.8605595E0,3.515159E0,0E0,0E0,3.3732605E0,2.1664689E0,4.3137093E0,8.081863E0,6.152649E-1,0E0,2.8134708E0,3.9231806E0,0E0,0E0,1.0016699E1,0E0,3.012502E0,0E0,6.104851E-1,3.7608137E0,7.8260183E-1,4.1202226E0,7.190109E0,4.0407753E0,2.1606712E0,0E0,0E0,0E0,3.7999878E0,4.4637184E0,7.537694E0,8.000099E0,0E0,0E0,0E0,0E0,0E0,0E0,0E0,0E0,0E0,0E0,0E0,0E0,0E0,0E0,0E0,0E0,0E0,0E0,0E0,0E0,0E0,0E0,0E0,0E0,0E0,0E0,0E0,0E0,0E0,0E0,0E0,0E0],"parents":[2147483647,0,0,1,1,2,2,3,3,4,4,5,5,6,6,7,7,8,8,9,9,10,10,11,11,12,12,14,14,15,15,16,16,17,17,18,18,19,19,20,20,21,21,22,22,25,25,26,26,27,27,28,28,29,29,31,31,32,32,35,35,37,37,39,39,40,40,41,41,42,42,43,43,44,44,45,45,49,49,50,50,51,51,52,52],"right_children":[2,4,6,8,10,12,14,16,18,20,22,24,26,-1,28,30,32,34,36,38,40,42,44,-1,-1,46,48,50,52,54,-1,56,58,-1,-1,60,-1,62,-1,64,66,68,70,72,74,76,-1,-1,-1,78,80,82,84,-1,-1,-1,-1,-1,-1,-1,-1,-1,-1,-1,-1,-1,-1,-1,-1,-1,-1,-1,-1,-1,-1,-1,-1,-1,-1,-1,-1,-1,-1,-1,-1],"split_conditions":[1E0,1E0,1E0,6E0,1.3E1,6.296296E-1,3.461538E-3,1E0,4E0,5E-1,9.090909E-3,2.308434E1,9E0,3.979937E-1,7.885E2,1.9E1,2.0285E3,1.08133335E1,1E0,2.7604E-4,7.3913044E-1,1E0,8.8E-1,-2.615298E-1,6.9290355E-2,1E0,1E0,7.435897E-3,5.2373413E1,1.76E2,-3.8422767E-2,1.036036E-2,2.5029666E3,9.178591E-2,6.052175E-1,1E0,-3.063729E-1,4E0,-2.11962E-1,8.695652E-3,1.21E2,9.5E-1,3.703704E-3,6.5833336E1,5.6E1,8.482727E0,-9.44617E-2,-2.2358362E-1,1.8390618E-1,1E0,2E0,1E0,6.3737707E0,-3.0828154E-1,-5.414141E-2,8.369822E-2,-2.4755535E-1,3.9746115E-1,-1.7906955E-1,-8.9423575E-2,-3.0303496E-1,3.0204552E-1,-1.1995967E-1,-2.2865925E-2,-2.831523E-1,3.328468E-2,-1.9786641E-1,-3.0313993E-1,-9.8645315E-2,-2.292751E-1,2.2826228E-1,3.06614E-1,-1.3918226E-2,-8.229631E-2,4.6271406E-2,-6.859479E-3,3.293157E-1,1.837032E-1,3.740292E-1,1.4930475E-1,-1.2974977E-1,-8.863659E-3,1.0548505E-1,-4.4093303E-2,1.9561149E-1],"split_indices":[9,18,33,1,24,23,6,10,29,23,6,2,0,0,25,30,28,2,17,3,23,31,23,0,0,14,10,3,2,8,0,6,25,0,0,16,0,26,0,6,25,23,6,1,24,22,0,0,0,34,8,18,22,0,0,0,0,0,0,0,0,0,0,0,0,0,0,0,0,0,0,0,0,0,0,0,0,0,0,0,0,0,0,0,0],"split_type":[0,0,0,0,0,0,0,0,0,0,0,0,0,0,0,0,0,0,0,0,0,0,0,0,0,0,0,0,0,0,0,0,0,0,0,0,0,0,0,0,0,0,0,0,0,0,0,0,0,0,0,0,0,0,0,0,0,0,0,0,0,0,0,0,0,0,0,0,0,0,0,0,0,0,0,0,0,0,0,0,0,0,0,0,0],"sum_hessian":[9.496742E2,4.962774E2,4.5339682E2,3.193916E2,1.768858E2,6.2646313E1,3.907505E2,1.6138707E2,1.5800453E2,4.9575195E1,1.27310616E2,3.0806594E0,5.9565655E1,1.1949565E1,3.7880093E2,1.2761986E2,3.376722E1,2.5288253E0,1.5547571E2,6.6906114E0,4.2884586E1,1.5586883E1,1.1172373E2,1.8282179E0,1.2524415E0,5.6814453E1,2.7512012E0,8.249918E1,2.9630176E2,1.2639918E2,1.2206774E0,3.1361452E1,2.4057696E0,1.4039958E0,1.1248296E0,1.2121186E2,3.426384E1,5.1114616E0,1.5791497E0,1.5774303E1,2.7110281E1,1.0043958E1,5.542924E0,2.5637716E1,8.608601E1,5.539516E1,1.4192927E0,1.5316808E0,1.2195203E0,5.4445274E1,2.8053907E1,2.2066245E2,7.5639305E1,1.2506039E2,1.3387884E0,2.0266597E0,2.9334791E1,1.1194487E0,1.286321E0,9.6835045E1,2.4376822E1,3.4699044E0,1.6415573E0,1.0495394E0,1.4724765E1,9.121674E0,1.7988607E1,6.037983E0,4.0059752E0,1.9053538E0,3.6375704E0,9.087873E0,1.6549843E1,4.263446E1,4.3451553E1,1.7349232E0,5.3660236E1,4.051593E1,1.3929343E1,2.2260687E1,5.793222E0,1.3902158E2,8.164086E1,1.5342373E1,6.0296932E1],"tree_param":{"num_deleted":"0","num_feature":"35","num_nodes":"85","size_leaf_vector":"1"}},{"base_weights":[-7.1195155E-2,-4.5567173E-1,3.070735E-1,-6.680285E-1,-1.2689382E-1,2.2873786E-1,6.6564536E-1,-5.271939E-1,-3.0693215E-1,-3.1017727E-1,5.403388E-2,5.332081E-1,1.6583064E-1,8.314324E-1,2.3852207E-1,-3.7083992E-1,-3.045102E-1,-2.7129817E-1,-2.5039804E-1,-4.0566784E-1,1.4504161E-1,1.0157368E0,2.912751E-1,2.1406786E-1,-2.2783957E-1,-1.6671757E-1,9.221034E-1,-1.4558575E-1,7.414764E-1,1.7197093E-1,-5.159363E-1,-5.8242184E-4,-4.0518042E-1,-2.9498884E-1,6.740235E-2,8.6179054E-1,7.500785E-2,-1.1654029E-2,1.0780079E0,6.7396885E-1,-1.5606432E-1,4.0657084E-2,3.387132E-1,3.549343E-1,-3.2992527E-1,2.4805996E-1,-8.63707E-1,1.0099355E0,1.6410658E-1,-9.3593097E-1,2.3900059E-1,1.8940017E-1,1.0441288E0,1.5270495E-1,-2.2822304E-1,-1.8924175E-1,-2.227487E-2,-2.1982624E-1,4.8196476E-2,-2.3619135E-1,-6.940204E-2,2.3834667E-1,-1.9584517E-1,4.404499E-1,-1.2626371E-1,3.7735138E-2,-2.4988942E-1,3.4596553E-1,2.670545E-2,2.2655952E-1,-1.4919314E-1,-1.8705069E-1,1.4433381E-1,-3.479255E-2,1.02516375E-1,2.5805914E-1,8.295826E-2,-2.4742356E-1,3.040941E-1,1.9122832E-2,-1.5522152E-1,2.256495E-2,-3.9329788E-1,3.1323513E-1,-2.8890457E-2,-1.2326551E-1,2.2464249E-1,-3.8613927E-1,4.0401205E-2,-1.1138155E-1,2.3423003E-1,2.0935164E-1,-1.7956437E-1,3.895774E-1,4.401272E-2],"categories":[],"categories_nodes":[],"categories_segments":[],"categories_sizes":[],"default_left":[0,0,0,0,0,0,0,0,0,0,0,0,0,0,0,0,0,0,0,0,0,0,0,0,0,0,0,0,0,0,0,0,0,0,0,0,0,0,0,0,0,0,0,0,0,0,0,0,0,0,0,0,0,0,0,0,0,0,0,0,0,0,0,0,0,0,0,0,0,0,0,0,0,0,0,0,0,0,0,0,0,0,0,0,0,0,0,0,0,0,0,0,0,0,0],"id":5,"left_children":[1,3,5,7,9,11,13,15,-1,17,19,21,23,25,27,29,-1,-1,31,33,35,37,39,41,43,45,47,49,51,53,55,57,59,-1,61,63,65,-1,67,69,71,73,75,77,79,-1,81,83,85,87,89,91,93,-1,-1,-1,-1,-1,-1,-1,-1,-1,-1,-1,-1,-1,-1,-1,-1,-1,-1,-1,-1,-1,-1,-1,-1,-1,-1,-1,-1,-1,-1,-1,-1,-1,-1,-1,-1,-1,-1,-1,-1,-1,-1],"loss_changes":[1.2727737E2,3.0211975E1,1.2241917E1,1.263324E1,5.7046776E0,6.876837E0,5.3667755E0,1.4167053E1,0E0,2.8052053E0,3.7056506E0,6.920841E0,5.7995386E0,5.2411766E0,4.624187E0,1.1585102E1,0E0,0E0,3.0519762E0,4.0745506E0,3.6248088E0,1.3711872E0,7.3940315E0,5.828656E0,2.1125693E0,4.542393E0,3.275257E0,4.5066013E0,1.52103E0,1.0301774E1,5.8096256E0,3.8008668E0,3.0553799E0,0E0,5.231566E0,5.6323485E0,3.2422247E0,0E0,1.3216438E0,2.576621E0,6.3885093E0,5.423616E0,4.857479E0,5.0954566E0,2.1777372E0,0E0,1.6684487E0,1.8446312E0,2.5134888E0,1.9839945E0,3.6870267E0,2.3663418E0,1.2761745E0,0E0,0E0,0E0,0E0,0E0,0E0,0E0,0E0,0E0,0E0,0E0,0E0,0E0,0E0,0E0,0E0,0E0,0E0,0E0,0E0,0E0,0E0,0E0,0E0,0E0,0E0,0E0,0E0,0E0,0E0,0E0,0E0,0E0,0E0,0E0,0E0,0E0,0E0,0E0,0E0,0E0,0E0],"parents":[2147483647,0,0,1,1,2,2,3,3,4,4,5,5,6,6,7,7,9,9,10,10,11,11,12,12,13,13,14,14,15,15,18,18,19,19,20,20,21,21,22,22,23,23,24,24,25,25,26,26,27,27,28,28,29,29,30,30,31,31,32,32,34,34,35,35,36,36,38,38,39,39,40,40,41,41,42,42,43,43,44,44,46,46,47,47,48,48,49,49,50,50,51,51,52,52],"right_children":[2,4,6,8,10,12,14,16,-1,18,20,22,24,26,28,30,-1,-1,32,34,36,38,40,42,44,46,48,50,52,54,56,58,60,-1,62,64,66,-1,68,70,72,74,76,78,80,-1,82,84,86,88,90,92,94,-1,-1,-1,-1,-1,-1,-1,-1,-1,-1,-1,-1,-1,-1,-1,-1,-1,-1,-1,-1,-1,-1,-1,-1,-1,-1,-1,-1,-1,-1,-1,-1,-1,-1,-1,-1,-1,-1,-1,-1,-1,-1],"split_conditions":[1E0,1E0,4.3797173E1,1E0,1.1976666E3,9E0,2.7604E-4,1E0,-3.0693215E-1,3E0,2E0,1.4389234E-2,3.333333E-2,1.6280304E1,8.08768E-3,6.296296E-1,-3.045102E-1,-2.7129817E-1,1.9125E1,5.7E1,1.3416326E3,1.45E1,1.0401666E3,3.3493168E1,4.13E2,2E0,6.2E1,3.9E1,3.6642857E1,7.5604394E-2,1E0,2E0,2.4014814E1,-2.9498884E-1,9.7E1,3E0,4.1065574E-2,-1.1654029E-2,1E0,6E0,2.5454545E-2,1E0,6.666667E-3,8E0,1.3043478E-2,2.4805996E-1,2.62E2,3.974359E-2,1E0,9.2134833E-1,3.703704E-3,3E0,1.13666664E2,1.5270495E-1,-2.2822304E-1,-1.8924175E-1,-2.227487E-2,-2.1982624E-1,4.8196476E-2,-2.3619135E-1,-6.940204E-2,2.3834667E-1,-1.9584517E-1,4.404499E-1,-1.2626371E-1,3.7735138E-2,-2.4988942E-1,3.4596553E-1,2.670545E-2,2.2655952E-1,-1.4919314E-1,-1.8705069E-1,1.4433381E-1,-3.479255E-2,1.02516375E-1,2.5805914E-1,8.295826E-2,-2.4742356E-1,3.040941E-1,1.9122832E-2,-1.5522152E-1,2.256495E-2,-3.9329788E-1,3.1323513E-1,-2.8890457E-2,-1.2326551E-1,2.2464249E-1,-3.8613927E-1,4.0401205E-2,-1.1138155E-1,2.3423003E-1,2.0935164E-1,-1.7956437E-1,3.895774E-1,4.401272E-2],"split_indices":[9,18,22,17,25,1,3,16,0,29,30,6,6,2,3,23,0,0,2,24,25,2,25,2,25,0,29,29,2,6,7,30,2,0,29,30,6,0,19,4,6,18,6,24,3,0,25,6,10,23,3,21,1,0,0,0,0,0,0,0,0,0,0,0,0,0,0,0,0,0,0,0,0,0,0,0,0,0,0,0,0,0,0,0,0,0,0,0,0,0,0,0,0,0,0],"split_type":[0,0,0,0,0,0,0,0,0,0,0,0,0,0,0,0,0,0,0,0,0,0,0,0,0,0,0,0,0,0,0,0,0,0,0,0,0,0,0,0,0,0,0,0,0,0,0,0,0,0,0,0,0,0,0,0,0,0,0,0,0,0,0,0,0,0,0,0,0,0,0,0,0,0,0,0,0,0,0,0,0,0,0,0,0,0,0,0,0,0,0,0,0,0,0],"sum_hessian":[8.731848E2,4.3293756E2,4.4024728E2,2.624135E2,1.7052405E2,3.6265707E2,7.75902E1,1.8966968E2,7.274383E1,8.435567E1,8.616837E1,6.081878E1,3.018383E2,5.5212856E1,2.2377344E1,1.4496742E2,4.4702255E1,6.4199114E0,7.793575E1,1.3668421E1,7.2499954E1,1.9242235E1,4.157654E1,2.69297E2,3.2541286E1,4.5279784E0,5.0684875E1,1.3090572E1,9.286772E0,3.0538092E1,1.1442934E2,3.019898E1,4.773678E1,5.6685114E0,7.9999094E0,5.4471054E0,6.705285E1,1.0938387E0,1.8148396E1,2.2134293E1,1.9442251E1,1.1317305E2,1.5612396E2,4.4814315E0,2.8059855E1,1.7899702E0,2.7380085E0,4.512383E1,5.561047E0,3.8156357E0,9.274937E0,3.8640518E0,5.4227195E0,2.2765732E1,7.77236E0,9.047208E1,2.3957256E1,4.8104353E0,2.5388544E1,1.38230295E1,3.3913746E1,3.9296608E0,4.0702486E0,3.6004112E0,1.8466942E0,6.431753E1,2.7353187E0,1.671147E1,1.4369255E0,2.1031006E1,1.1032867E0,1.1227288E1,8.214963E0,7.484751E1,3.832554E1,1.5266624E1,1.4085733E2,1.5154239E0,2.9660077E0,9.265099E0,1.8794756E1,1.1518762E0,1.5861322E0,4.382581E1,1.2980194E0,2.9536862E0,2.6073608E0,2.7208414E0,1.0947942E0,4.509694E0,4.765243E0,2.4180913E0,1.4459605E0,3.8765113E0,1.5462083E0],"tree_param":{"num_deleted":"0","num_feature":"35","num_nodes":"95","size_leaf_vector":"1"}},{"base_weights":[-6.167933E-2,-3.8228148E-1,2.2851154E-1,-2.7641016E-1,-3.0265683E-1,1.7588297E-1,6.342111E-1,-1.918809E-1,-2.994428E-1,9.6775204E-1,1.5308648E-1,-3.5256615E-1,7.4093866E-1,-1.3593224E-1,-7.1530586E-1,3.2908612E-1,1.0008722E-2,6.167623E-1,1.1713219E-1,2.1558493E-1,-9.2029136E-1,1.0275623E0,3.7476325E-1,1.1060033E0,-1.548044E-1,-7.840586E-1,5.5523194E-2,-9.1417566E-2,8.008772E-1,7.283177E-2,4.2693868E-1,-4.217657E-1,7.837046E-2,3.2397872E-1,2.1613316E-4,5.6564474E-1,-4.5909622E-1,4.8724768E-1,-6.714089E-2,-6.873562E-2,1.2944998E-2,-2.6050237E-1,-8.1210405E-2,2.0642543E-1,-1.745272E-1,-1.581249E-1,3.0021447E-1,7.7175215E-2,2.9555932E-1,-3.1825326E-2,5.3743105E-2,3.3660164E-1,7.956382E-2,2.0735785E-1,-9.771847E-2,-3.4825382E-1,7.881259E-2],"categories":[],"categories_nodes":[],"categories_segments":[],"categories_sizes":[],"default_left":[0,0,0,0,0,0,0,0,0,0,0,0,0,0,0,0,0,0,0,0,0,0,0,0,0,0,0,0,0,0,0,0,0,0,0,0,0,0,0,0,0,0,0,0,0,0,0,0,0,0,0,0,0,0,0,0,0],"id":6,"left_children":[1,3,5,7,-1,9,11,13,-1,15,17,19,21,23,25,-1,-1,27,29,-1,31,33,35,37,39,41,43,45,47,49,51,-1,-1,-1,-1,53,55,-1,-1,-1,-1,-1,-1,-1,-1,-1,-1,-1,-1,-1,-1,-1,-1,-1,-1,-1,-1],"loss_changes":[7.5775955E1,2.5386143E1,9.019382E0,2.00841E1,0E0,6.710248E0,5.3924675E0,8.65137E0,0E0,1.2241888E0,6.1041574E0,3.9653056E0,4.2632656E0,6.525886E0,1.5599794E0,0E0,0E0,3.5188475E0,4.704677E0,0E0,2.656161E0,1.3042278E0,3.6054206E0,3.2444582E0,3.9515963E0,9.044647E-1,1.7213397E0,3.5489683E0,1.8584023E0,5.7841616E0,4.5318832E0,0E0,0E0,0E0,0E0,2.1894612E0,2.5678527E0,0E0,0E0,0E0,0E0,0E0,0E0,0E0,0E0,0E0,0E0,0E0,0E0,0E0,0E0,0E0,0E0,0E0,0E0,0E0,0E0],"parents":[2147483647,0,0,1,1,2,2,3,3,5,5,6,6,7,7,9,9,10,10,11,11,12,12,13,13,14,14,17,17,18,18,20,20,21,21,22,22,23,23,24,24,25,25,26,26,27,27,28,28,29,29,30,30,35,35,36,36],"right_children":[2,4,6,8,-1,10,12,14,-1,16,18,20,22,24,26,-1,-1,28,30,-1,32,34,36,38,40,42,44,46,48,50,52,-1,-1,-1,-1,54,56,-1,-1,-1,-1,-1,-1,-1,-1,-1,-1,-1,-1,-1,-1,-1,-1,-1,-1,-1,-1],"split_conditions":[1E0,1E0,1E0,1E0,-3.0265683E-1,3.461538E-3,1.775E1,7.784314E-2,-2.994428E-1,4E0,4.13E2,1.7E1,3E0,2E0,2.4E1,3.2908612E-1,1.0008722E-2,1.218E1,1E0,2.1558493E-1,5.39E1,2.8901337E-2,1E0,3.943218E-1,1E0,4E0,3.7501428E-1,2.2E1,8E0,8.636364E-1,9.090909E-3,-4.217657E-1,7.837046E-2,3.2397872E-1,2.1613316E-4,8E0,3E0,4.8724768E-1,-6.714089E-2,-6.873562E-2,1.2944998E-2,-2.6050237E-1,-8.1210405E-2,2.0642543E-1,-1.745272E-1,-1.581249E-1,3.0021447E-1,7.7175215E-2,2.9555932E-1,-3.1825326E-2,5.3743105E-2,3.3660164E-1,7.956382E-2,2.0735785E-1,-9.771847E-2,-3.4825382E-1,7.881259E-2],"split_indices":[9,17,31,16,0,6,2,6,0,21,25,1,0,24,1,0,0,22,16,0,1,6,16,5,7,4,5,29,24,23,6,0,0,0,0,26,30,0,0,0,0,0,0,0,0,0,0,0,0,0,0,0,0,0,0,0,0],"split_type":[0,0,0,0,0,0,0,0,0,0,0,0,0,0,0,0,0,0,0,0,0,0,0,0,0,0,0,0,0,0,0,0,0,0,0,0,0,0,0,0,0,0,0,0,0,0,0,0,0,0,0,0,0,0,0,0,0],"sum_hessian":[8.125426E2,3.8589233E2,4.2665024E2,3.313464E2,5.4545937E1,3.7892807E2,4.772217E1,2.9774088E2,3.3605534E1,9.443472E0,3.694846E2,4.4329314E0,4.328924E1,2.7012683E2,2.7614033E1,8.143464E0,1.3000082E0,2.542631E1,3.440583E2,1.4435197E0,2.9894116E0,2.326913E1,2.002011E1,3.1810918E0,2.6694574E2,2.5336983E1,2.2770493E0,5.3503175E0,2.0075993E1,3.0209558E2,4.196271E1,1.984085E0,1.0053266E0,2.2090849E1,1.1782832E0,1.6552645E1,3.4674644E0,2.1298509E0,1.0512408E0,1.9396982E2,7.2975914E1,2.116984E1,4.167144E0,1.1027473E0,1.174302E0,4.194472E0,1.1558459E0,5.689957E0,1.4386036E1,1.12599655E2,1.8949593E2,6.7999883E0,3.516272E1,1.470592E1,1.8467243E0,1.4497454E0,2.0177193E0],"tree_param":{"num_deleted":"0","num_feature":"35","num_nodes":"57","size_leaf_vector":"1"}},{"base_weights":[-4.8845828E-2,-3.038354E-1,1.750828E-1,-2.0817775E-1,-3.0058584E-1,1.1833266E-1,4.705621E-1,-1.3970497E-1,-9.544948E-1,3.8739184E-1,7.575407E-2,6.3422453E-1,1.23003185E-1,-5.906639E-1,-8.9005984E-2,-2.9416555E-1,-4.758931E-2,-2.1714504E-1,5.400757E-1,1.9773409E-2,3.5469493E-1,7.67238E-1,-2.3422195E-2,-7.5388536E-2,9.359044E-1,-7.471394E-1,8.559218E-2,2.586907E-1,-1.4121628E-1,2.0627736E-1,-5.673169E-1,3.3163875E-1,1.265718E0,-1.1507024E-1,2.0628563E-1,5.5756282E-2,6.3201094E-1,-1.1395677E-1,8.4692353E-1,-3.3288413E-1,2.431751E-1,2.5357592E-1,-7.6126206E-1,3.2982725E-1,8.7527655E-2,-2.5279844E-1,-4.894178E-2,-2.1480368E-1,1.6515912E-1,-1.271206E-2,1.8469042E-1,-9.343166E-2,-8.515593E-3,-3.8082227E-1,1.0818971E-3,2.0246285E-1,-8.400398E-3,1.2472412E-3,4.3532112E-1,2.9774223E-2,-7.684909E-2,8.050305E-2,-2.2040841E-1,9.474274E-2,-1.7619687E-1,1.0621994E-1,3.1712338E-1,1.4453399E-1,-2.2871149E-1,2.983884E-1,8.7376714E-2,8.525696E-2,-2.6090118E-1,1.3554376E-1,-2.6506087E-1,-3.0803633E-1,9.884717E-2],"categories":[],"categories_nodes":[],"categories_segments":[],"categories_sizes":[],"default_left":[0,0,0,0,0,0,0,0,0,0,0,0,0,0,0,0,0,0,0,0,0,0,0,0,0,0,0,0,0,0,0,0,0,0,0,0,0,0,0,0,0,0,0,0,0,0,0,0,0,0,0,0,0,0,0,0,0,0,0,0,0,0,0,0,0,0,0,0,0,0,0,0,0,0,0,0,0],"id":7,"left_children":[1,3,5,7,-1,9,11,13,15,17,19,21,23,25,27,-1,-1,29,31,33,35,37,39,41,43,45,47,49,51,-1,53,55,57,59,61,63,65,67,69,71,-1,73,75,-1,-1,-1,-1,-1,-1,-1,-1,-1,-1,-1,-1,-1,-1,-1,-1,-1,-1,-1,-1,-1,-1,-1,-1,-1,-1,-1,-1,-1,-1,-1,-1,-1,-1],"loss_changes":[4.3921192E1,2.3804829E1,6.8141136E0,1.6092525E1,0E0,3.9231849E0,3.6575212E0,6.6235847E0,3.9425278E-1,4.4458795E0,4.6638026E0,3.902481E0,3.6612315E0,3.1679401E0,4.8230534E0,0E0,0E0,3.6117961E0,5.286392E0,6.3157816E0,4.1045804E0,2.6921844E0,2.4483795E0,4.439867E0,1.4714646E-1,1.1971436E0,2.782855E0,3.7633357E0,4.4066014E0,0E0,3.1629705E0,3.8039927E0,1.8794823E0,4.4355936E0,6.348274E0,4.3878317E0,2.674899E0,1.8919435E0,2.5023823E0,2.5212307E0,0E0,3.4358041E0,2.1777666E0,0E0,0E0,0E0,0E0,0E0,0E0,0E0,0E0,0E0,0E0,0E0,0E0,0E0,0E0,0E0,0E0,0E0,0E0,0E0,0E0,0E0,0E0,0E0,0E0,0E0,0E0,0E0,0E0,0E0,0E0,0E0,0E0,0E0,0E0],"parents":[2147483647,0,0,1,1,2,2,3,3,5,5,6,6,7,7,8,8,9,9,10,10,11,11,12,12,13,13,14,14,17,17,18,18,19,19,20,20,21,21,22,22,23,23,24,24,25,25,26,26,27,27,28,28,30,30,31,31,32,32,33,33,34,34,35,35,36,36,37,37,38,38,39,39,41,41,42,42],"right_children":[2,4,6,8,-1,10,12,14,16,18,20,22,24,26,28,-1,-1,30,32,34,36,38,40,42,44,46,48,50,52,-1,54,56,58,60,62,64,66,68,70,72,-1,74,76,-1,-1,-1,-1,-1,-1,-1,-1,-1,-1,-1,-1,-1,-1,-1,-1,-1,-1,-1,-1,-1,-1,-1,-1,-1,-1,-1,-1,-1,-1,-1,-1,-1,-1],"split_conditions":[9.0637594E-1,1E0,4.3797173E1,1E0,-3.0058584E-1,5.895738E2,2.7604E-4,3.8728848E-1,3.53E2,6.818182E-1,4.0523586E3,3E0,5.6479168E1,3E0,6.296296E-1,-2.9416555E-1,-4.758931E-2,5.217391E-1,4E0,3E0,1E0,1.6280304E1,9.310345E-1,4.0270603E1,1E0,4E0,2E0,2.8901337E-2,1E0,2.0627736E-1,1.4736842E-2,7E0,1.45E1,3.4E1,4.2857144E-2,1.1E1,8.868449E0,2.62E2,1E0,2.7E1,2.431751E-1,2.7591043E2,9.3939394E-1,3.2982725E-1,8.7527655E-2,-2.5279844E-1,-4.894178E-2,-2.1480368E-1,1.6515912E-1,-1.271206E-2,1.8469042E-1,-9.343166E-2,-8.515593E-3,-3.8082227E-1,1.0818971E-3,2.0246285E-1,-8.400398E-3,1.2472412E-3,4.3532112E-1,2.9774223E-2,-7.684909E-2,8.050305E-2,-2.2040841E-1,9.474274E-2,-1.7619687E-1,1.0621994E-1,3.1712338E-1,1.4453399E-1,-2.2871149E-1,2.983884E-1,8.7376714E-2,8.525696E-2,-2.6090118E-1,1.3554376E-1,-2.6506087E-1,-3.0803633E-1,9.884717E-2],"split_indices":[22,17,22,16,0,25,3,5,1,23,25,21,2,1,23,0,0,23,0,30,18,2,23,2,12,4,21,6,18,0,6,1,2,24,6,0,22,25,7,29,0,1,23,0,0,0,0,0,0,0,0,0,0,0,0,0,0,0,0,0,0,0,0,0,0,0,0,0,0,0,0,0,0,0,0,0,0],"split_type":[0,0,0,0,0,0,0,0,0,0,0,0,0,0,0,0,0,0,0,0,0,0,0,0,0,0,0,0,0,0,0,0,0,0,0,0,0,0,0,0,0,0,0,0,0,0,0,0,0,0,0,0,0,0,0,0,0,0,0,0,0,0,0,0,0,0,0,0,0,0,0,0,0,0,0,0,0],"sum_hessian":[7.672733E2,3.585885E2,4.0868484E2,3.1651685E2,4.2071663E1,3.440136E2,6.467123E1,2.9100504E2,2.5511814E1,4.5895596E1,2.98118E2,4.3406628E1,2.1264593E1,2.833344E1,2.626716E2,2.447832E1,1.0334947E0,9.169129E0,3.6726467E1,2.491808E2,4.893722E1,3.5965683E1,7.4409447E0,1.7822262E1,3.4423327E0,2.2924288E1,5.409152E0,3.3777058E1,2.2889453E2,2.289691E0,6.879438E0,2.9662964E1,7.0635023E0,1.4484474E2,1.0433606E2,2.4128477E1,2.4808746E1,2.9469564E0,3.301873E1,5.865415E0,1.5755296E0,1.2471069E1,5.3511915E0,2.1817017E0,1.2606311E0,1.9321114E1,3.6031737E0,1.7874229E0,3.6217291E0,1.880081E1,1.4976249E1,9.054041E1,1.3835413E2,2.5366154E0,4.3428226E0,1.4729102E1,1.4933862E1,1.0358232E0,6.027679E0,5.7619144E1,8.722559E1,9.85514E1,5.784662E0,1.7543161E1,6.5853148E0,1.6108574E1,8.700172E0,1.6698008E0,1.2771556E0,2.5460892E1,7.557837E0,2.947559E0,2.917856E0,1.1132899E1,1.3381698E0,4.3507233E0,1.0004684E0],"tree_param":{"num_deleted":"0","num_feature":"35","num_nodes":"77","size_leaf_vector":"1"}},{"base_weights":[-3.9347816E-2,-2.5051826E-1,1.2865515E-1,-1.7095633E-1,-2.948452E-1,1.0230193E-1,6.35822E-1,-1.1195881E-1,-2.8957242E-1,7.147254E-2,4.1166133E-1,9.395063E-1,-2.740601E-1,-4.549573E-2,-4.031349E-1,7.68851E-1,5.5881236E-2,-6.0429174E-1,5.086555E-1,1.0345371E0,4.458495E-2,-2.7937257E-1,4.8496118E-1,-1.6007537E-1,9.9527866E-2,-5.9577215E-1,-1.7861235E-1,9.252618E-1,-3.2375157E-2,9.288316E-2,-2.3071261E-1,-3.6903232E-2,-2.509451E-1,7.980286E-1,7.4637845E-2,8.877094E-2,3.2266688E-1,2.3863521E-1,-3.547781E-2,-8.914905E-2,1.8117951E-2,3.2521853E-1,-5.791293E-4,-2.020798E-1,6.0249966E-2,-1.1829782E-1,1.8351652E-1,3.012413E-1,9.368842E-2,3.4050833E-2,-1.448284E-1,3.0546176E-1,-1.1548855E-1,-8.8656195E-2,2.6247317E-1,-3.778953E-1,1.1247938E-1],"categories":[],"categories_nodes":[],"categories_segments":[],"categories_sizes":[],"default_left":[0,0,0,0,0,0,0,0,0,0,0,0,0,0,0,0,0,0,0,0,0,0,0,0,0,0,0,0,0,0,0,0,0,0,0,0,0,0,0,0,0,0,0,0,0,0,0,0,0,0,0,0,0,0,0,0,0],"id":8,"left_children":[1,3,5,7,-1,9,11,13,-1,15,17,19,21,23,25,27,29,31,33,35,-1,-1,37,39,41,43,45,47,-1,49,51,-1,-1,53,55,-1,-1,-1,-1,-1,-1,-1,-1,-1,-1,-1,-1,-1,-1,-1,-1,-1,-1,-1,-1,-1,-1],"loss_changes":[2.597243E1,1.8727142E1,5.386342E0,1.3656656E1,0E0,3.6798067E0,5.771392E0,5.2950287E0,0E0,3.8156664E0,3.759791E0,9.8771E-1,3.3286502E0,3.749079E0,2.0949183E0,1.153357E0,3.7139072E0,2.893859E-1,4.025322E0,8.744526E-2,0E0,0E0,7.185161E-1,3.822719E0,9.968459E0,1.8070459E0,4.491625E0,6.6547394E-3,0E0,3.723634E0,8.11744E0,0E0,0E0,1.8905106E0,6.12739E0,0E0,0E0,0E0,0E0,0E0,0E0,0E0,0E0,0E0,0E0,0E0,0E0,0E0,0E0,0E0,0E0,0E0,0E0,0E0,0E0,0E0,0E0],"parents":[2147483647,0,0,1,1,2,2,3,3,5,5,6,6,7,7,9,9,10,10,11,11,12,12,13,13,14,14,15,15,16,16,17,17,18,18,19,19,22,22,23,23,24,24,25,25,26,26,27,27,29,29,30,30,33,33,34,34],"right_children":[2,4,6,8,-1,10,12,14,-1,16,18,20,22,24,26,28,30,32,34,36,-1,-1,38,40,42,44,46,48,-1,50,52,-1,-1,54,56,-1,-1,-1,-1,-1,-1,-1,-1,-1,-1,-1,-1,-1,-1,-1,-1,-1,-1,-1,-1,-1,-1],"split_conditions":[1E0,1E0,7.2302086E1,1E0,-2.948452E-1,1E0,4.3416777E-1,1.7283952E-2,-2.8957242E-1,3.461538E-3,6.296296E-1,6.818182E-3,1E0,3E0,1E0,4E0,1E0,7.2E1,3.3E1,1.6789324E1,4.458495E-2,-2.7937257E-1,3.375E1,9.5652175E-1,3.35E1,6E1,9.459459E-1,1E0,-3.2375157E-2,7.7945E2,2.7769072E0,-3.6903232E-2,-2.509451E-1,1.7282051E1,4.1727045E-1,8.877094E-2,3.2266688E-1,2.3863521E-1,-3.547781E-2,-8.914905E-2,1.8117951E-2,3.2521853E-1,-5.791293E-4,-2.020798E-1,6.0249966E-2,-1.1829782E-1,1.8351652E-1,3.012413E-1,9.368842E-2,3.4050833E-2,-1.448284E-1,3.0546176E-1,-1.1548855E-1,-8.8656195E-2,2.6247317E-1,-3.778953E-1,1.1247938E-1],"split_indices":[9,17,22,16,0,31,5,3,0,6,23,3,18,0,18,21,12,25,29,2,0,0,8,23,1,8,23,17,0,1,22,0,0,2,5,0,0,0,0,0,0,0,0,0,0,0,0,0,0,0,0,0,0,0,0,0,0],"split_type":[0,0,0,0,0,0,0,0,0,0,0,0,0,0,0,0,0,0,0,0,0,0,0,0,0,0,0,0,0,0,0,0,0,0,0,0,0,0,0,0,0,0,0,0,0,0,0,0,0,0,0,0,0,0,0,0,0],"sum_hessian":[7.301782E2,3.2330746E2,4.0687076E2,2.9273608E2,3.0571377E1,3.8791574E2,1.8955023E1,2.7355783E2,1.9178244E1,3.5388058E2,3.403514E1,1.4187284E1,4.7677383E0,2.2366168E2,4.9896168E1,6.6821914E0,3.471984E2,2.5103717E0,3.1524769E1,1.2390424E1,1.7968603E0,2.4336865E0,2.3340518E0,1.2488739E2,9.877429E1,2.5965027E1,2.3931139E1,5.623652E0,1.0585393E0,3.0809622E2,3.9102173E1,1.3148229E0,1.1955489E0,1.8410927E1,1.3113841E1,1.0840318E0,1.1306393E1,1.3305291E0,1.0035226E0,7.679075E1,4.8096634E1,8.323143E0,9.045115E1,2.3794731E1,2.1702957E0,1.9193525E1,4.7376146E0,4.417105E0,1.2065469E0,2.982169E2,9.879323E0,3.6827545E0,3.541942E1,1.0225536E0,1.7388374E1,1.8222651E0,1.1291575E1],"tree_param":{"num_deleted":"0","num_feature":"35","num_nodes":"57","size_leaf_vector":"1"}},{"base_weights":[-3.1676233E-2,-1.6539806E-1,1.3587813E-1,-9.121837E-2,-7.766542E-1,5.7179585E-2,3.013746E-1,-2.5779292E-1,-4.3438467E-5,-8.999242E-1,1.6938409E-1,1.9022554E-1,-1.2747496E-1,-6.268387E-1,3.4726995E-1,-1.9194661E-1,-2.7781668E-1,3.6687694E-2,-4.550382E-1,-3.0033067E-1,-5.660149E-1,7.941288E-1,-6.0623056E-1,1.2243031E-1,6.9690007E-1,6.5056556E-1,-2.1134005E-1,-1.3756652E-2,-3.319482E-1,6.576076E-1,2.4306557E-1,-1.1799692E-1,-7.190295E-1,-5.6192637E-3,6.2127423E-1,1.2820448E-1,-9.021149E-1,1.4535101E-1,-8.028361E-1,2.6422158E-2,3.1065112E-1,-2.274604E-1,-4.4008777E-2,-1.740081E-1,2.520787E-1,2.6467675E-1,1.0582551E0,9.849441E-1,-1.23186566E-1,-9.883156E-1,-1.2546626E-1,9.815949E-2,-1.0598979E-1,8.191382E-1,-1.7997818E-1,-2.1990214E-1,3.6133385E-1,-4.5568287E-2,3.8463372E-1,-4.0401973E-2,-2.9294556E-1,1.4673368E-2,-9.572298E-2,9.165778E-2,4.743774E-1,1.1963027E-1,-2.6923832E-1,-3.3035418E-1,1.1172444E-1,4.411944E-2,-2.8555652E-1,-5.402262E-3,-3.7934226E-1,9.444847E-2,-1.6202383E-1,2.2247434E-1,-1.6591534E-1,3.79804E-1,5.8319423E-2,1.5141399E-2,3.933301E-1,-1.849133E-1,1.0733332E-1,-9.343078E-3,-3.619753E-1,-1.38002075E-2,-2.5229642E-1,1.7962736E-1,3.718414E-1,1.892637E-1,-1.9556667E-1,9.55336E-3,-3.5737798E-1,-2.0236054E-1,1.2216624E-1],"categories":[],"categories_nodes":[],"categories_segments":[],"categories_sizes":[],"default_left":[0,0,0,0,0,0,0,0,0,0,0,0,0,0,0,0,0,0,0,0,0,0,0,0,0,0,0,0,0,0,0,0,0,0,0,0,0,0,0,0,0,0,0,0,0,0,0,0,0,0,0,0,0,0,0,0,0,0,0,0,0,0,0,0,0,0,0,0,0,0,0,0,0,0,0,0,0,0,0,0,0,0,0,0,0,0,0,0,0,0,0,0,0,0,0],"id":9,"left_children":[1,3,5,7,9,11,13,15,17,19,21,23,25,27,29,31,-1,33,35,-1,37,39,41,43,45,47,49,51,-1,53,55,57,59,61,63,65,67,-1,69,-1,-1,-1,-1,71,73,75,77,79,81,83,85,-1,-1,87,89,91,93,-1,-1,-1,-1,-1,-1,-1,-1,-1,-1,-1,-1,-1,-1,-1,-1,-1,-1,-1,-1,-1,-1,-1,-1,-1,-1,-1,-1,-1,-1,-1,-1,-1,-1,-1,-1,-1,-1],"loss_changes":[1.5802904E1,1.7710302E1,4.0614104E0,5.328389E0,5.0861206E0,5.2686033E0,4.5070963E0,5.283202E0,3.8227563E0,7.032337E-1,3.252474E0,4.1903353E0,6.009635E0,1.4846661E0,2.963687E0,4.367762E0,0E0,5.2380743E0,4.570968E0,0E0,3.1360118E0,5.223775E-1,1.0654926E-1,4.309766E0,1.9809117E0,2.4503293E0,5.3466673E0,4.9201354E-1,0E0,3.3530293E0,4.1255383E0,5.006054E0,1.9535046E0,3.406152E0,3.8491678E0,2.6583152E0,2.8956442E0,0E0,1.4687304E0,0E0,0E0,0E0,0E0,5.823224E0,4.028888E0,3.5008335E0,1.1091013E0,1.8834276E0,1.0756879E0,1.6368685E0,4.2244797E0,0E0,0E0,1.1144905E0,2.1907642E0,3.8667908E0,3.0904088E0,0E0,0E0,0E0,0E0,0E0,0E0,0E0,0E0,0E0,0E0,0E0,0E0,0E0,0E0,0E0,0E0,0E0,0E0,0E0,0E0,0E0,0E0,0E0,0E0,0E0,0E0,0E0,0E0,0E0,0E0,0E0,0E0,0E0,0E0,0E0,0E0,0E0,0E0],"parents":[2147483647,0,0,1,1,2,2,3,3,4,4,5,5,6,6,7,7,8,8,9,9,10,10,11,11,12,12,13,13,14,14,15,15,17,17,18,18,20,20,21,21,22,22,23,23,24,24,25,25,26,26,27,27,29,29,30,30,31,31,32,32,33,33,34,34,35,35,36,36,38,38,43,43,44,44,45,45,46,46,47,47,48,48,49,49,50,50,53,53,54,54,55,55,56,56],"right_children":[2,4,6,8,10,12,14,16,18,20,22,24,26,28,30,32,-1,34,36,-1,38,40,42,44,46,48,50,52,-1,54,56,58,60,62,64,66,68,-1,70,-1,-1,-1,-1,72,74,76,78,80,82,84,86,-1,-1,88,90,92,94,-1,-1,-1,-1,-1,-1,-1,-1,-1,-1,-1,-1,-1,-1,-1,-1,-1,-1,-1,-1,-1,-1,-1,-1,-1,-1,-1,-1,-1,-1,-1,-1,-1,-1,-1,-1,-1,-1],"split_conditions":[6.147634E0,1E0,4.5068626E1,4.0610555E-1,5.1377144E0,1.01E2,3.965994E-1,1E0,4.7020655E0,2.0905E0,3.0444107E1,4.437319E-1,4.0919292E-1,3E0,1.2741904E3,8.4275E2,-2.7781668E-1,3.58544E0,2.222222E-3,-3.0033067E-1,2E0,4.1697484E-1,1E0,1.4984875E1,1E0,1.914E2,1.11E2,8.5897434E-1,-3.319482E-1,1E0,1.6475E3,8.0126666E2,2E0,5.832367E1,7E0,5.308652E1,5.7833332E1,1.4535101E-1,4.1544217E-1,2.6422158E-2,3.1065112E-1,-2.274604E-1,-4.4008777E-2,4.1866253E1,6.4E1,2.99375E1,4.8498654E-1,1.2E2,2.8136702E1,7.885E2,2.6666667E-2,9.815949E-2,-1.0598979E-1,1.188E2,1.11E1,2.1479834E3,6.818182E-1,-4.5568287E-2,3.8463372E-1,-4.0401973E-2,-2.9294556E-1,1.4673368E-2,-9.572298E-2,9.165778E-2,4.743774E-1,1.1963027E-1,-2.6923832E-1,-3.3035418E-1,1.1172444E-1,4.411944E-2,-2.8555652E-1,-5.402262E-3,-3.7934226E-1,9.444847E-2,-1.6202383E-1,2.2247434E-1,-1.6591534E-1,3.79804E-1,5.8319423E-2,1.5141399E-2,3.933301E-1,-1.849133E-1,1.0733332E-1,-9.343078E-3,-3.619753E-1,-1.38002075E-2,-2.5229642E-1,1.7962736E-1,3.718414E-1,1.892637E-1,-1.9556667E-1,9.55336E-3,-3.5737798E-1,-2.0236054E-1,1.2216624E-1],"split_indices":[22,17,2,5,22,1,5,16,22,22,2,5,5,1,25,28,0,22,3,0,4,5,7,22,18,1,1,23,0,18,25,28,26,2,26,2,2,0,5,0,0,0,0,2,24,2,5,1,2,25,6,0,0,1,1,28,23,0,0,0,0,0,0,0,0,0,0,0,0,0,0,0,0,0,0,0,0,0,0,0,0,0,0,0,0,0,0,0,0,0,0,0,0,0,0],"split_type":[0,0,0,0,0,0,0,0,0,0,0,0,0,0,0,0,0,0,0,0,0,0,0,0,0,0,0,0,0,0,0,0,0,0,0,0,0,0,0,0,0,0,0,0,0,0,0,0,0,0,0,0,0,0,0,0,0,0,0,0,0,0,0,0,0,0,0,0,0,0,0,0,0,0,0,0,0,0,0,0,0,0,0,0,0,0,0,0,0,0,0,0,0,0,0],"sum_hessian":[7.03305E2,3.9114932E2,3.1215567E2,3.4984296E2,4.1306366E1,2.1246681E2,9.9688866E1,1.23105156E2,2.2673781E2,3.658769E1,4.718678E0,1.2347287E2,8.899394E1,4.100479E0,9.558839E1,1.1323494E2,9.870213E0,2.1065155E2,1.6086258E1,2.6545883E1,1.0041804E1,2.600305E0,2.1183727E0,1.09996506E2,1.3476369E1,8.001787E0,8.099216E1,2.251436E0,1.8490431E0,2.2693298E1,7.289509E1,1.0037605E2,1.2858884E1,1.9735893E2,1.3292623E1,7.289646E0,8.796613E0,1.6549094E0,8.386895E0,1.010204E0,1.5901011E0,1.1035045E0,1.0148681E0,3.3365295E1,7.663121E1,6.925322E0,6.551047E0,5.3966627E0,2.6051242E0,7.0147386E0,7.397742E1,1.1415218E0,1.1099142E0,1.9042858E1,3.6504405E0,1.4657633E1,5.8237457E1,9.887379E1,1.5022725E0,4.3985147E0,8.460369E0,1.6883208E2,2.8526846E1,1.09946375E1,2.2979858E0,6.2517033E0,1.0379429E0,7.7259293E0,1.0706832E0,1.1390824E0,7.2478123E0,3.0078781E1,3.286515E0,7.156488E1,5.066324E0,4.433055E0,2.4922671E0,4.9056897E0,1.645357E0,1.6950127E0,3.70165E0,1.1472075E0,1.4579167E0,1.5147599E0,5.499979E0,6.7540665E1,6.4367504E0,1.4083416E1,4.9594417E0,1.2190151E0,2.4314253E0,1.2408849E1,2.2487836E0,1.8892334E0,5.634822E1],"tree_param":{"num_deleted":"0","num_feature":"35","num_nodes":"95","size_leaf_vector":"1"}},{"base_weights":[-2.7172059E-2,-1.5802513E-1,6.98193E-2,-1.04894824E-1,-2.857503E-1,4.9948063E-2,5.1594484E-1,-6.28951E-2,-2.7989697E-1,-3.6449388E-1,6.593575E-2,8.799628E-1,-1.2690255E-1,-3.6620086E-1,-5.530658E-3,1.3718335E-1,-8.260066E-1,2.717699E-1,5.5166256E-2,9.971294E-1,4.0119845E-2,1.5555122E-1,-4.989774E-1,-5.328549E-1,3.8186118E-1,3.5074644E-2,-4.287367E-1,-3.3946058E-1,4.9223992E-1,-1.0159585E0,1.9049462E-2,-6.4378285E-1,6.9909364E-2,7.625254E-2,3.1862685E-1,-2.5761956E-1,5.1737074E-2,-2.0252156E-1,2.0267442E-3,2.431231E-1,-1.3737048E-1,-1.8880978E-1,1.9566659E-2,-1.8589056E-1,1.7781799E-1,-2.590362E-1,8.381742E-2,2.0100029E-1,2.6378045E-3,-3.4646815E-1,-7.503259E-2,8.7592695E-3,-2.3148705E-1,2.433569E-1,1.6559197E-2],"categories":[],"categories_nodes":[],"categories_segments":[],"categories_sizes":[],"default_left":[0,0,0,0,0,0,0,0,0,0,0,0,0,0,0,0,0,0,0,0,0,0,0,0,0,0,0,0,0,0,0,0,0,0,0,0,0,0,0,0,0,0,0,0,0,0,0,0,0,0,0,0,0,0,0],"id":10,"left_children":[1,3,5,7,-1,9,11,13,-1,15,17,19,21,23,25,27,29,-1,31,33,-1,-1,35,37,39,41,43,45,47,49,-1,51,53,-1,-1,-1,-1,-1,-1,-1,-1,-1,-1,-1,-1,-1,-1,-1,-1,-1,-1,-1,-1,-1,-1],"loss_changes":[8.662283E0,1.2161426E1,3.4508564E0,9.449925E0,0E0,2.5190783E0,3.9999385E0,4.543806E0,0E0,3.3871076E0,3.2374792E0,8.052244E-1,1.9111778E0,5.382115E0,3.8081634E0,1.4588139E0,1.3329415E0,0E0,3.7534575E0,1.7034435E-1,0E0,0E0,1.3255332E0,2.6436234E0,3.3043656E0,4.0939875E0,4.15018E0,1.4897838E0,4.0509868E-1,3.7563324E-1,0E0,6.705551E-1,3.8087482E0,0E0,0E0,0E0,0E0,0E0,0E0,0E0,0E0,0E0,0E0,0E0,0E0,0E0,0E0,0E0,0E0,0E0,0E0,0E0,0E0,0E0,0E0],"parents":[2147483647,0,0,1,1,2,2,3,3,5,5,6,6,7,7,9,9,10,10,11,11,12,12,13,13,14,14,15,15,16,16,18,18,19,19,22,22,23,23,24,24,25,25,26,26,27,27,28,28,29,29,31,31,32,32],"right_children":[2,4,6,8,-1,10,12,14,-1,16,18,20,22,24,26,28,30,-1,32,34,-1,-1,36,38,40,42,44,46,48,50,-1,52,54,-1,-1,-1,-1,-1,-1,-1,-1,-1,-1,-1,-1,-1,-1,-1,-1,-1,-1,-1,-1,-1,-1],"split_conditions":[1E0,1E0,7.2302086E1,1E0,-2.857503E-1,1.5333333E1,1.1702381E2,2E0,-2.7989697E-1,3.6E1,2.41E2,4.3416777E-1,7.589286E-1,4E0,1.2E1,1.2E1,1E0,2.717699E-1,2.8004666E2,1.6789324E1,4.0119845E-2,1.5555122E-1,1E0,7.5E1,1.7283952E-2,3.974359E-3,1.36E2,3.291301E1,3.639286E1,2.1382576E1,1.9049462E-2,1.85E2,3.474E2,7.625254E-2,3.1862685E-1,-2.5761956E-1,5.1737074E-2,-2.0252156E-1,2.0267442E-3,2.431231E-1,-1.3737048E-1,-1.8880978E-1,1.9566659E-2,-1.8589056E-1,1.7781799E-1,-2.590362E-1,8.381742E-2,2.0100029E-1,2.6378045E-3,-3.4646815E-1,-7.503259E-2,8.7592695E-3,-2.3148705E-1,2.433569E-1,1.6559197E-2],"split_indices":[9,17,22,16,0,2,1,30,0,24,28,5,23,4,30,2,10,0,25,2,0,0,18,24,3,6,1,22,22,22,0,25,25,0,0,0,0,0,0,0,0,0,0,0,0,0,0,0,0,0,0,0,0,0,0],"split_type":[0,0,0,0,0,0,0,0,0,0,0,0,0,0,0,0,0,0,0,0,0,0,0,0,0,0,0,0,0,0,0,0,0,0,0,0,0,0,0,0,0,0,0,0,0,0,0,0,0,0,0,0,0,0,0],"sum_hessian":[6.8065063E2,2.8947906E2,3.9117154E2,2.7239478E2,1.7084284E1,3.755556E2,1.5615965E1,2.6027023E2,1.2124559E1,1.3139799E1,3.624158E2,9.734735E0,5.8812304E0,4.053958E1,2.1973065E2,6.6326623E0,6.507137E0,3.5356607E0,3.5888013E2,8.123094E0,1.6116409E0,2.0067477E0,3.8744829E0,3.3388863E1,7.150719E0,2.013307E2,1.8399935E1,2.8502643E0,3.7823977E0,5.2449303E0,1.2622067E0,6.5321846E0,3.5234793E2,1.0481453E0,7.0749483E0,2.3411455E0,1.5333372E0,2.6225876E1,7.1629863E0,4.75771E0,2.3930092E0,7.8757615E0,1.9345496E2,1.5834124E1,2.565811E0,1.3293922E0,1.5208721E0,2.4833875E0,1.2990105E0,4.0095553E0,1.2353749E0,1.1659558E0,5.366229E0,5.803341E0,3.4654462E2],"tree_param":{"num_deleted":"0","num_feature":"35","num_nodes":"55","size_leaf_vector":"1"}},{"base_weights":[-2.2674374E-2,-4.326144E-3,-5.6304836E-1,-3.942262E-2,2.2822653E-1,-8.076701E-1,-3.9717417E-2,-4.9563465E-3,-2.7029166E-1,-4.8917465E-2,6.001423E-1,-8.644577E-1,-2.7473506E-2,-2.299175E-1,5.3949195E-1,-1.0022947E-1,7.232208E-2,-3.2239553E-2,-4.9522284E-1,5.5180985E-2,-2.8388342E-1,8.811614E-1,7.4946354E-3,-9.2307425E-1,-7.499563E-2,1.1321691E0,-9.794651E-2,-3.7996616E-2,-8.076109E-1,7.0621943E-1,5.4062594E-2,-6.6184473E-1,1.4684913E-1,-1.2177448E0,-2.961289E-1,-4.7286585E-2,1.005567E0,-1.0886273E-1,1.0585968E0,2.5346157E-1,-2.7532852E-1,-2.8917506E-1,-8.4005706E-2,5.4958725E-1,-2.5431575E-2,-1.6865358E-1,3.7296386E-3,-2.4815537E-2,-2.7936912E-1,2.0698529E-2,3.512792E-1,1.0372225E-1,5.4726023E-3,-2.7902338E-1,9.138167E-2,-1.9494366E-2,2.7911788E-1,-7.497757E-2,-4.07166E-1,-1.4326625E-1,1.4115816E-1,2.787514E-1,-3.8863007E-2,-1.4174964E-1,5.945304E-1,1.17772065E-1,-1.9165875E-1,3.5085088E-1,-8.808264E-2,-4.9737237E-2,1.9988038E-1],"categories":[],"categories_nodes":[],"categories_segments":[],"categories_sizes":[],"default_left":[0,0,0,0,0,0,0,0,0,0,0,0,0,0,0,0,0,0,0,0,0,0,0,0,0,0,0,0,0,0,0,0,0,0,0,0,0,0,0,0,0,0,0,0,0,0,0,0,0,0,0,0,0,0,0,0,0,0,0,0,0,0,0,0,0,0,0,0,0,0,0],"id":11,"left_children":[1,3,5,7,9,11,13,15,17,19,21,23,-1,-1,25,27,29,31,33,35,-1,37,39,41,-1,43,-1,45,47,49,51,53,55,57,59,61,63,65,67,69,-1,-1,-1,-1,-1,-1,-1,-1,-1,-1,-1,-1,-1,-1,-1,-1,-1,-1,-1,-1,-1,-1,-1,-1,-1,-1,-1,-1,-1,-1,-1],"loss_changes":[6.6151447E0,5.2858067E0,2.772883E0,4.4753895E0,8.782988E0,5.2591324E-1,3.7937171E0,3.6188755E0,3.8961406E0,4.684379E0,6.045312E0,2.615347E-1,0E0,0E0,2.9645474E0,9.659112E0,3.1035113E0,4.220099E0,5.033244E0,4.466627E0,0E0,4.4438324E0,3.1221993E0,4.804039E-2,0E0,2.902062E0,0E0,5.382614E0,1.5135012E0,2.1451054E0,2.761519E0,2.4295294E0,4.921307E0,7.108469E-1,4.497224E0,3.4871292E0,7.373492E0,1.4870712E0,3.4910908E0,1.9820403E0,0E0,0E0,0E0,0E0,0E0,0E0,0E0,0E0,0E0,0E0,0E0,0E0,0E0,0E0,0E0,0E0,0E0,0E0,0E0,0E0,0E0,0E0,0E0,0E0,0E0,0E0,0E0,0E0,0E0,0E0,0E0],"parents":[2147483647,0,0,1,1,2,2,3,3,4,4,5,5,6,6,7,7,8,8,9,9,10,10,11,11,14,14,15,15,16,16,17,17,18,18,19,19,21,21,22,22,23,23,25,25,27,27,28,28,29,29,30,30,31,31,32,32,33,33,34,34,35,35,36,36,37,37,38,38,39,39],"right_children":[2,4,6,8,10,12,14,16,18,20,22,24,-1,-1,26,28,30,32,34,36,-1,38,40,42,-1,44,-1,46,48,50,52,54,56,58,60,62,64,66,68,70,-1,-1,-1,-1,-1,-1,-1,-1,-1,-1,-1,-1,-1,-1,-1,-1,-1,-1,-1,-1,-1,-1,-1,-1,-1,-1,-1,-1,-1,-1,-1],"split_conditions":[7.784314E-2,1E0,1E0,1E0,6.890606E2,9.4186044E-1,7.058824E-1,3.58544E0,1.9444443E-2,7E0,4.6E1,5E0,-2.7473506E-2,-2.299175E-1,1.21E2,1E0,4.127431E0,2.4333334E1,2.183908E-2,8.844998E-3,-2.8388342E-1,4.651163E-3,2E0,3.12E1,-7.499563E-2,1.3333334E-1,-9.794651E-2,8.832272E-3,2E0,5.9E1,7.692308E-3,1.812446E1,7E0,2.1220266E1,6E0,2E0,1.715E2,4.1866253E1,1E0,4.335699E-1,-2.7532852E-1,-2.8917506E-1,-8.4005706E-2,5.4958725E-1,-2.5431575E-2,-1.6865358E-1,3.7296386E-3,-2.4815537E-2,-2.7936912E-1,2.0698529E-2,3.512792E-1,1.0372225E-1,5.4726023E-3,-2.7902338E-1,9.138167E-2,-1.9494366E-2,2.7911788E-1,-7.497757E-2,-4.07166E-1,-1.4326625E-1,1.4115816E-1,2.787514E-1,-3.8863007E-2,-1.4174964E-1,5.945304E-1,1.17772065E-1,-1.9165875E-1,3.5085088E-1,-8.808264E-2,-4.9737237E-2,1.9988038E-1],"split_indices":[6,31,18,12,25,23,23,22,6,0,29,4,0,0,25,17,22,2,6,3,0,6,7,1,0,6,0,6,21,24,6,22,30,2,0,24,25,2,16,5,0,0,0,0,0,0,0,0,0,0,0,0,0,0,0,0,0,0,0,0,0,0,0,0,0,0,0,0,0,0,0],"split_type":[0,0,0,0,0,0,0,0,0,0,0,0,0,0,0,0,0,0,0,0,0,0,0,0,0,0,0,0,0,0,0,0,0,0,0,0,0,0,0,0,0,0,0,0,0,0,0,0,0,0,0,0,0,0,0,0,0,0,0,0,0,0,0,0,0,0,0,0,0,0,0],"sum_hessian":[6.664375E2,6.4552686E2,2.0910656E1,5.616013E2,8.39255E1,1.3879572E1,7.031084E0,4.8953976E2,7.206157E1,4.8587536E1,3.533796E1,1.26678E1,1.2117721E0,2.9752173E0,4.0558667E0,2.1911082E2,2.7042896E2,3.5565136E1,3.6496433E1,4.437797E1,4.2095656E0,2.3641104E1,1.1696856E1,1.1106127E1,1.5616733E0,2.2254105E0,1.8304561E0,2.023615E2,1.6749317E1,6.5167336E0,2.6391223E2,7.2790923E0,2.8286045E1,6.778928E0,2.9717506E1,4.0916706E1,3.4612634E0,3.6518118E0,1.9989292E1,9.813999E0,1.8828564E0,9.973701E0,1.1324266E0,1.0920566E0,1.1333538E0,1.6868963E1,1.8549254E2,2.6833785E0,1.4065938E1,3.2325895E0,3.2841442E0,2.79194E1,2.3599281E2,5.7271795E0,1.5519131E0,2.2988258E1,5.2977867E0,1.205543E0,5.573385E0,2.4335686E1,5.3818207E0,2.3790748E0,3.8537632E1,1.581976E0,1.8792874E0,2.0097084E0,1.6421034E0,1.8598948E1,1.3903449E0,5.1658573E0,4.648142E0],"tree_param":{"num_deleted":"0","num_feature":"35","num_nodes":"71","size_leaf_vector":"1"}},{"base_weights":[-1.9680103E-2,-5.320477E-3,-4.9447593E-1,-3.7691448E-2,1.3423441E-1,-7.4888724E-1,-3.4188442E-2,-6.1097674E-2,2.1321498E-1,-9.522277E-2,2.6314494E-1,-8.1410253E-1,-2.313298E-2,-2.1546638E-1,3.921495E-1,1.6956939E-1,-9.108907E-2,4.7213754E-1,-1.3273849E-1,1.996244E-1,-4.8043966E-1,7.788361E-1,2.0881073E-1,-8.856866E-1,-6.386224E-2,3.1310794E-1,-2.3053655E-1,8.069394E-2,1.1513476E0,-4.1621202E-1,-6.1513428E-2,1.543583E-1,1.0990832E0,2.6584738E-1,-5.478373E-1,4.5362957E-2,2.7676553E-1,2.5713408E-1,-8.848238E-1,2.7826163E-1,9.911134E-3,2.9161435E-1,-2.694628E-1,-2.8141505E-1,-6.598838E-2,-1.969814E-1,1.336393E-1,1.4400651E-3,2.7957106E-1,-4.606346E-2,4.7877827E-1,-3.201698E-2,-2.0862934E-1,2.32599E-1,-2.2656087E-2,2.3812662E-1,-5.5209856E-2,3.8019893E-1,2.4629754E-3,-5.287705E-2,2.3813996E-1,1.13953225E-1,-2.1698335E-1,5.317675E-2,-2.7409303E-1,-1.99571E-1,2.625491E-1,4.3398604E-2,-3.5322976E-1,4.2521134E-2,2.0196186E-1,2.4489807E-1,-1.4864229E-1],"categories":[],"categories_nodes":[],"categories_segments":[],"categories_sizes":[],"default_left":[0,0,0,0,0,0,0,0,0,0,0,0,0,0,0,0,0,0,0,0,0,0,0,0,0,0,0,0,0,0,0,0,0,0,0,0,0,0,0,0,0,0,0,0,0,0,0,0,0,0,0,0,0,0,0,0,0,0,0,0,0,0,0,0,0,0,0,0,0,0,0,0,0],"id":12,"left_children":[1,3,5,7,9,11,13,15,17,19,21,23,-1,-1,25,27,29,31,33,35,37,39,41,43,-1,-1,45,47,49,51,53,55,57,59,61,63,-1,65,67,-1,-1,69,71,-1,-1,-1,-1,-1,-1,-1,-1,-1,-1,-1,-1,-1,-1,-1,-1,-1,-1,-1,-1,-1,-1,-1,-1,-1,-1,-1,-1,-1,-1],"loss_changes":[4.4712396E0,2.886986E0,2.2288952E0,3.0587006E0,3.5844715E0,4.7833538E-1,2.5858421E0,3.3024445E0,4.0464363E0,5.0957427E0,2.003675E0,2.9149723E-1,0E0,0E0,2.4777699E0,4.7077937E0,4.023737E0,4.9417934E0,3.4245872E0,2.817679E0,6.0075326E0,7.460203E-1,2.9026752E0,1.300826E-1,0E0,0E0,1.3405013E0,3.324235E0,2.8508391E0,2.9451547E0,4.596858E0,4.0816493E0,1.5435095E0,2.6568654E0,1.907901E0,2.9679003E0,0E0,4.9357877E0,4.0085993E0,0E0,0E0,3.4085498E0,3.1146116E0,0E0,0E0,0E0,0E0,0E0,0E0,0E0,0E0,0E0,0E0,0E0,0E0,0E0,0E0,0E0,0E0,0E0,0E0,0E0,0E0,0E0,0E0,0E0,0E0,0E0,0E0,0E0,0E0,0E0,0E0],"parents":[2147483647,0,0,1,1,2,2,3,3,4,4,5,5,6,6,7,7,8,8,9,9,10,10,11,11,14,14,15,15,16,16,17,17,18,18,19,19,20,20,21,21,22,22,23,23,26,26,27,27,28,28,29,29,30,30,31,31,32,32,33,33,34,34,35,35,37,37,38,38,41,41,42,42],"right_children":[2,4,6,8,10,12,14,16,18,20,22,24,-1,-1,26,28,30,32,34,36,38,40,42,44,-1,-1,46,48,50,52,54,56,58,60,62,64,-1,66,68,-1,-1,70,72,-1,-1,-1,-1,-1,-1,-1,-1,-1,-1,-1,-1,-1,-1,-1,-1,-1,-1,-1,-1,-1,-1,-1,-1,-1,-1,-1,-1,-1,-1],"split_conditions":[7.784314E-2,2.3598116E1,1E0,3.8283334E2,8.235294E-1,9.4186044E-1,7.058824E-1,6.909091E-1,5.128205E-3,1.2923429E3,1.2E1,1.2E1,-2.313298E-2,-2.1546638E-1,2E0,5.8577534E-2,7.692308E-1,2.439024E-3,5.9166364E2,6E0,7.4545455E-1,4.1065574E-2,2.577466E-2,2.55E1,-6.386224E-2,3.1310794E-1,7E0,1E0,1.6E1,8.945833E2,7.755102E-1,2.05825E3,1E0,1E0,1.1663334E3,5E0,2.7676553E-1,1.9105E3,9.375E-3,2.7826163E-1,9.911134E-3,1E0,6.1281946E2,-2.8141505E-1,-6.598838E-2,-1.969814E-1,1.336393E-1,1.4400651E-3,2.7957106E-1,-4.606346E-2,4.7877827E-1,-3.201698E-2,-2.0862934E-1,2.32599E-1,-2.2656087E-2,2.3812662E-1,-5.5209856E-2,3.8019893E-1,2.4629754E-3,-5.287705E-2,2.3813996E-1,1.13953225E-1,-2.1698335E-1,5.317675E-2,-2.7409303E-1,-1.99571E-1,2.625491E-1,4.3398604E-2,-3.5322976E-1,4.2521134E-2,2.0196186E-1,2.4489807E-1,-1.4864229E-1],"split_indices":[6,22,18,1,23,23,23,23,3,28,24,30,0,0,26,6,23,3,1,30,23,6,6,1,0,0,24,11,1,28,23,28,34,18,25,30,0,28,6,0,0,34,25,0,0,0,0,0,0,0,0,0,0,0,0,0,0,0,0,0,0,0,0,0,0,0,0,0,0,0,0,0,0],"split_type":[0,0,0,0,0,0,0,0,0,0,0,0,0,0,0,0,0,0,0,0,0,0,0,0,0,0,0,0,0,0,0,0,0,0,0,0,0,0,0,0,0,0,0,0,0,0,0,0,0,0,0,0,0,0,0,0,0,0,0,0,0,0,0,0,0,0,0,0,0,0,0,0,0],"sum_hessian":[6.551956E2,6.3694324E2,1.8252375E1,5.176092E2,1.19334045E2,1.1351272E1,6.901103E0,4.7413522E2,4.3474007E1,4.302034E1,7.6313705E1,1.01537E1,1.1975718E0,2.3868775E0,4.5142255E0,5.4018578E1,4.2011664E2,2.465596E1,1.8818047E1,2.4641436E1,1.8378906E1,6.0031395E0,7.031056E1,8.650604E0,1.5030957E0,1.8755949E0,2.6386309E0,5.052683E1,3.491748E0,3.394032E1,3.8617633E2,1.7189396E1,7.4665627E0,9.783397E0,9.034649E0,2.1183874E1,3.45756E0,6.6371875E0,1.1741718E1,4.8019986E0,1.2011409E0,6.026683E1,1.0043734E1,7.6405606E0,1.0100431E0,1.6361163E0,1.0025146E0,4.731396E1,3.212867E0,1.0536865E0,2.4380615E0,1.6753178E1,1.718714E1,5.4625278E0,3.8071378E2,5.483166E0,1.170623E1,6.3287206E0,1.1378422E0,5.6871567E0,4.09624E0,1.2515749E0,7.783074E0,1.9339294E1,1.8445807E0,2.632284E0,4.0049033E0,2.7106047E0,9.031114E0,4.425593E1,1.6010899E1,1.2804409E0,8.763292E0],"tree_param":{"num_deleted":"0","num_feature":"35","num_nodes":"73","size_leaf_vector":"1"}},{"base_weights":[-1.3024927E-2,1.7287567E-2,-2.0961045E-1,7.0444614E-1,5.7938932E-3,1.5178464E-1,-3.030973E-1,-6.358452E-2,1.2035301E0,-9.043434E-2,6.125978E-2,-2.3466207E-1,3.9530843E-1,-3.771895E-1,2.4876717E-1,3.5230428E-1,-1.7663504E-1,5.690897E-1,1.781946E-1,-6.055548E-1,-4.9686763E-2,5.3681445E-1,3.295437E-2,4.9049336E-2,1.1549866E0,-5.468714E-1,-1.4249824E-1,3.3660984E-1,-3.7219632E-2,-3.4242507E-2,1.9769134E-1,1.5473445E-1,-6.842624E-2,-7.386987E-1,-7.618126E-2,-2.546186E-2,-2.484191E-1,9.3063366E-1,8.66426E-2,-2.9183972E-1,4.3252487E-2,3.191485E-1,-2.3994225E-1,1.5013392E0,-1.8329931E-2,-6.6200423E-1,6.923515E-2,-3.572241E-1,4.6236923E-1,6.8595564E-1,-4.5761403E-1,4.114093E-2,-2.5678796E-1,1.6051924E-1,-1.9604601E-1,-4.6398847E-5,-2.4863037E-1,3.116297E-1,5.1308203E-2,1.2066233E-1,-1.3347286E-1,2.4811752E-1,8.620803E-3,-1.6703233E-1,2.4204677E-1,5.9993416E-1,3.589666E-2,8.7319486E-2,-2.1268521E-1,-1.9120322E-1,1.858479E-1,1.7947373E-1,-1.3405609E-1,-1.4774783E-1,2.3892426E-1,-3.3556145E-2,3.4581503E-1,-2.481936E-1,4.4497687E-2],"categories":[],"categories_nodes":[],"categories_segments":[],"categories_sizes":[],"default_left":[0,0,0,0,0,0,0,0,0,0,0,0,0,0,0,0,0,0,0,0,0,0,0,0,0,0,0,0,0,0,0,0,0,0,0,0,0,0,0,0,0,0,0,0,0,0,0,0,0,0,0,0,0,0,0,0,0,0,0,0,0,0,0,0,0,0,0,0,0,0,0,0,0,0,0,0,0,0,0],"id":13,"left_children":[1,3,5,7,9,11,13,15,17,19,21,-1,23,25,27,29,-1,-1,31,33,35,37,39,41,43,45,47,-1,49,-1,-1,-1,-1,51,53,55,-1,57,59,-1,61,63,-1,65,-1,67,69,71,73,75,77,-1,-1,-1,-1,-1,-1,-1,-1,-1,-1,-1,-1,-1,-1,-1,-1,-1,-1,-1,-1,-1,-1,-1,-1,-1,-1,-1,-1],"loss_changes":[3.8593166E0,4.430789E0,2.9690511E0,3.6142597E0,2.9586642E0,4.505027E0,2.9180255E0,1.208915E0,3.675126E0,4.2247896E0,4.714845E0,0E0,3.967007E0,2.3628893E0,2.2340364E0,5.3072995E-1,0E0,0E0,5.8134943E-1,9.847708E-1,3.541596E0,3.4093103E0,3.489987E0,2.9037588E0,2.090228E0,2.544158E0,3.6812372E0,0E0,2.61851E0,0E0,0E0,0E0,0E0,1.3176422E0,1.7905543E0,3.7459614E0,0E0,6.763449E-1,1.904672E0,0E0,3.7364445E0,4.497888E0,0E0,2.330987E0,0E0,1.5383406E0,2.9028757E0,2.0266106E0,2.7935202E0,1.3156813E0,1.3309588E0,0E0,0E0,0E0,0E0,0E0,0E0,0E0,0E0,0E0,0E0,0E0,0E0,0E0,0E0,0E0,0E0,0E0,0E0,0E0,0E0,0E0,0E0,0E0,0E0,0E0,0E0,0E0,0E0],"parents":[2147483647,0,0,1,1,2,2,3,3,4,4,5,5,6,6,7,7,8,8,9,9,10,10,12,12,13,13,14,14,15,15,18,18,19,19,20,20,21,21,22,22,23,23,24,24,25,25,26,26,28,28,33,33,34,34,35,35,37,37,38,38,40,40,41,41,43,43,45,45,46,46,47,47,48,48,49,49,50,50],"right_children":[2,4,6,8,10,12,14,16,18,20,22,-1,24,26,28,30,-1,-1,32,34,36,38,40,42,44,46,48,-1,50,-1,-1,-1,-1,52,54,56,-1,58,60,-1,62,64,-1,66,-1,68,70,72,74,76,78,-1,-1,-1,-1,-1,-1,-1,-1,-1,-1,-1,-1,-1,-1,-1,-1,-1,-1,-1,-1,-1,-1,-1,-1,-1,-1,-1,-1],"split_conditions":[3.974359E-2,1.04E2,2E0,6.8E1,1E0,3.8142526E-1,2.0285E3,2.1E1,7E0,1E1,1.3E1,-2.3466207E-1,4E0,5.7142857E-2,4.1993383E-2,5E0,-1.7663504E-1,5.690897E-1,2.8E1,7E0,1E0,4.3E1,6E-1,1.1718469E3,9E0,3.076923E-2,1.6E1,3.3660984E-1,2E0,-3.4242507E-2,1.9769134E-1,1.5473445E-1,-6.842624E-2,3E0,4E0,1E0,-2.484191E-1,3E0,2.6839826E-2,-2.9183972E-1,6.551724E-1,1.63E2,-2.3994225E-1,3.943218E-1,-1.8329931E-2,3.3333334E-1,1E0,5.8577534E-2,2E0,2.321264E0,6.39E1,4.114093E-2,-2.5678796E-1,1.6051924E-1,-1.9604601E-1,-4.6398847E-5,-2.4863037E-1,3.116297E-1,5.1308203E-2,1.2066233E-1,-1.3347286E-1,2.4811752E-1,8.620803E-3,-1.6703233E-1,2.4204677E-1,5.9993416E-1,3.589666E-2,8.7319486E-2,-2.1268521E-1,-1.9120322E-1,1.858479E-1,1.7947373E-1,-1.3405609E-1,-1.4774783E-1,2.3892426E-1,-3.3556145E-2,3.4581503E-1,-2.481936E-1,4.4497687E-2],"split_indices":[6,28,4,28,9,5,28,25,29,29,24,0,30,6,6,26,0,0,1,26,17,1,23,28,30,3,1,0,30,0,0,0,0,24,30,16,0,21,6,0,23,25,0,5,0,23,10,6,30,22,2,0,0,0,0,0,0,0,0,0,0,0,0,0,0,0,0,0,0,0,0,0,0,0,0,0,0,0,0],"split_type":[0,0,0,0,0,0,0,0,0,0,0,0,0,0,0,0,0,0,0,0,0,0,0,0,0,0,0,0,0,0,0,0,0,0,0,0,0,0,0,0,0,0,0,0,0,0,0,0,0,0,0,0,0,0,0,0,0,0,0,0,0,0,0,0,0,0,0,0,0,0,0,0,0,0,0,0,0,0,0],"sum_hessian":[6.460371E2,5.6051984E2,8.551727E1,8.229388E0,5.5229047E2,1.7447258E1,6.8070015E1,3.5850387E0,4.644349E0,2.017106E2,3.5057986E2,3.1508203E0,1.4296437E1,6.029187E1,7.778144E0,2.1844435E0,1.4005951E0,2.2634697E0,2.3808794E0,1.3770195E1,1.879404E2,1.8685343E1,3.3189453E2,1.055161E1,3.744827E0,3.4220352E1,2.6071518E1,1.1976687E0,6.580475E0,1.1155183E0,1.0689253E0,1.1531725E0,1.227707E0,1.0686891E1,3.083304E0,1.8326935E2,4.6710577E0,9.397201E0,9.288141E0,2.416598E0,3.2947794E2,8.478004E0,2.073605E0,2.7321262E0,1.0127009E0,2.876963E1,5.450722E0,1.9543177E1,6.5283427E0,2.186866E0,4.393609E0,1.2418544E0,9.445037E0,1.533169E0,1.5501349E0,1.7864165E2,4.6276994E0,7.9044733E0,1.4927275E0,5.980843E0,3.3072984E0,4.9733257E0,3.245046E2,2.9813812E0,5.496624E0,1.6790571E0,1.0530691E0,1.1064957E0,2.7663134E1,2.3170993E0,3.1336231E0,1.1893882E0,1.8353788E1,1.5690135E0,4.9593296E0,1.0878408E0,1.0990252E0,2.5018404E0,1.8917686E0],"tree_param":{"num_deleted":"0","num_feature":"35","num_nodes":"79","size_leaf_vector":"1"}},{"base_weights":[-1.0438494E-2,5.607186E-3,-2.6222423E-1,-2.6030961E-2,1.7492113E-1,-1.09805234E-1,-8.125149E-1,-3.7716012E-2,5.370063E-1,-1.5177417E-1,3.0067837E-1,-5.569606E-1,1.329394E-1,-8.9798313E-1,-4.2523935E-2,-2.1100765E-2,-7.2926253E-1,-1.15840785E-1,7.522306E-1,4.7173396E-1,-3.8989967E-1,3.953037E-1,-4.139635E-1,-7.0043534E-1,1.125273E-1,5.0700325E-1,-1.9596435E-1,-2.9629877E-1,-1.0145484E-1,-2.980365E-2,6.4621514E-1,-1.0694586E0,3.1749642E-1,5.175985E-1,3.014783E-1,-7.5234845E-2,8.9739984E-1,2.3283146E-1,-6.388503E-1,1.2390995E0,3.191427E-1,-2.7409646E-1,3.4817133E-2,-2.6269898E-1,3.6885813E-2,-1.8907022E-1,8.055314E-1,1.278657E-1,-7.1822906E-1,-2.3293046E-2,1.9726705E-2,-6.8491526E-2,3.3699092E-1,-3.69879E-1,3.4629475E-2,2.5987214E-1,-9.351461E-2,-6.2401876E-2,2.686873E-1,-1.4323936E-1,1.1881567E-1,-9.811083E-3,4.1437802E-1,2.592499E-1,-1.9965164E-1,-2.9172355E-1,-2.6786055E-2,5.091923E-1,-4.136885E-2,-1.379013E-1,1.2745164E-1,-1.8570074E-1,9.900667E-2,3.2249033E-1,3.3637263E-2,1.416554E-1,-1.3178718E-1,2.5762755E-2,-2.9241768E-1],"categories":[],"categories_nodes":[],"categories_segments":[],"categories_sizes":[],"default_left":[0,0,0,0,0,0,0,0,0,0,0,0,0,0,0,0,0,0,0,0,0,0,0,0,0,0,0,0,0,0,0,0,0,0,0,0,0,0,0,0,0,0,0,0,0,0,0,0,0,0,0,0,0,0,0,0,0,0,0,0,0,0,0,0,0,0,0,0,0,0,0,0,0,0,0,0,0,0,0],"id":14,"left_children":[1,3,5,7,9,11,13,15,17,19,21,23,25,27,-1,29,31,-1,33,35,37,39,41,43,-1,45,47,-1,-1,49,51,53,55,-1,57,59,61,63,65,67,69,-1,71,-1,-1,-1,73,75,77,-1,-1,-1,-1,-1,-1,-1,-1,-1,-1,-1,-1,-1,-1,-1,-1,-1,-1,-1,-1,-1,-1,-1,-1,-1,-1,-1,-1,-1,-1],"loss_changes":[2.576858E0,3.2199583E0,3.115717E0,3.3533416E0,3.9335907E0,3.4475198E0,3.3890247E-1,5.6981235E0,2.3500004E0,4.1878877E0,4.80706E0,1.7508366E0,2.6769938E0,1.8677711E-2,0E0,2.8453016E0,4.4835024E0,0E0,3.3157816E0,1.908099E0,3.2589645E0,3.5342274E0,1.9418528E0,1.5493641E0,0E0,3.930269E0,2.0993123E0,0E0,0E0,2.2054098E0,2.888555E0,1.8878078E0,1.521793E0,0E0,2.3623235E0,1.0198507E0,2.0807114E0,4.2403827E0,2.5894666E0,3.209259E0,4.923047E0,0E0,1.256306E0,0E0,0E0,0E0,1.453352E0,1.8039931E0,1.0518644E0,0E0,0E0,0E0,0E0,0E0,0E0,0E0,0E0,0E0,0E0,0E0,0E0,0E0,0E0,0E0,0E0,0E0,0E0,0E0,0E0,0E0,0E0,0E0,0E0,0E0,0E0,0E0,0E0,0E0,0E0],"parents":[2147483647,0,0,1,1,2,2,3,3,4,4,5,5,6,6,7,7,8,8,9,9,10,10,11,11,12,12,13,13,15,15,16,16,18,18,19,19,20,20,21,21,22,22,23,23,25,25,26,26,29,29,30,30,31,31,32,32,34,34,35,35,36,36,37,37,38,38,39,39,40,40,42,42,46,46,47,47,48,48],"right_children":[2,4,6,8,10,12,14,16,18,20,22,24,26,28,-1,30,32,-1,34,36,38,40,42,44,-1,46,48,-1,-1,50,52,54,56,-1,58,60,62,64,66,68,70,-1,72,-1,-1,-1,74,76,78,-1,-1,-1,-1,-1,-1,-1,-1,-1,-1,-1,-1,-1,-1,-1,-1,-1,-1,-1,-1,-1,-1,-1,-1,-1,-1,-1,-1,-1,-1],"split_conditions":[2.5925927E-2,8E0,2.9E1,1E1,4.0798575E-1,1.4666667E1,2.833E3,6E0,5E0,9E0,1.22E2,1.1E1,3E0,7E0,-4.2523935E-2,2.3529412E-2,2.08765E3,-1.15840785E-1,4.0743423E-1,1E0,1.8075E1,4.09971E-1,1E0,1.1E1,1.125273E-1,7.4545455E-1,4E0,-2.9629877E-1,-1.0145484E-1,9.259259E-1,7.993274E2,5E0,4.3416777E-1,5.175985E-1,1.395E2,2.4324324E-2,2.6725E2,3.5555556E-2,8.7540455E0,3.3868492E1,7.589286E-1,-2.7409646E-1,9E0,-2.6269898E-1,3.6885813E-2,-1.8907022E-1,7.065E2,4.335509E1,7.708333E-1,-2.3293046E-2,1.9726705E-2,-6.8491526E-2,3.3699092E-1,-3.69879E-1,3.4629475E-2,2.5987214E-1,-9.351461E-2,-6.2401876E-2,2.686873E-1,-1.4323936E-1,1.1881567E-1,-9.811083E-3,4.1437802E-1,2.592499E-1,-1.9965164E-1,-2.9172355E-1,-2.6786055E-2,5.091923E-1,-4.136885E-2,-1.379013E-1,1.2745164E-1,-1.8570074E-1,9.900667E-2,3.2249033E-1,3.3637263E-2,1.416554E-1,-1.3178718E-1,2.5762755E-2,-2.9241768E-1],"split_indices":[3,30,29,4,5,2,28,4,1,30,24,24,30,30,0,3,25,0,5,18,2,5,18,30,0,23,26,0,0,23,25,30,5,0,1,6,28,6,22,22,23,0,30,0,0,0,25,2,23,0,0,0,0,0,0,0,0,0,0,0,0,0,0,0,0,0,0,0,0,0,0,0,0,0,0,0,0,0,0],"split_type":[0,0,0,0,0,0,0,0,0,0,0,0,0,0,0,0,0,0,0,0,0,0,0,0,0,0,0,0,0,0,0,0,0,0,0,0,0,0,0,0,0,0,0,0,0,0,0,0,0,0,0,0,0,0,0,0,0,0,0,0,0,0,0,0,0,0,0,0,0,0,0,0,0,0,0,0,0,0,0],"sum_hessian":[6.3646063E2,5.9924963E2,3.7210964E1,5.0561606E2,9.363359E1,3.0079197E1,7.1317673E0,4.962501E2,9.365965E0,2.5967554E1,6.766604E1,1.0128059E1,1.9951138E1,6.025296E0,1.1064714E0,4.8561316E2,1.0636937E1,1.6206304E0,7.7453346E0,6.905404E0,1.906215E1,6.0148643E1,7.5173974E0,8.9923315E0,1.1357276E0,9.081364E0,1.0869773E1,4.534553E0,1.4907432E0,4.8030457E2,5.3086143E0,8.011514E0,2.6254237E0,1.5568012E0,6.1885333E0,3.382386E0,3.523018E0,5.4626045E0,1.35995455E1,3.7154381E0,5.6433205E1,3.0668151E0,4.4505825E0,7.362093E0,1.6302387E0,1.6571903E0,7.4241734E0,7.175671E0,3.694102E0,3.201936E2,1.6011093E2,2.0578883E0,3.2507262E0,7.004594E0,1.0069199E0,1.2011646E0,1.4242591E0,3.681515E0,2.5070186E0,1.8178214E0,1.5645647E0,1.5246534E0,1.9983644E0,3.2303858E0,2.232219E0,7.9841065E0,5.6154385E0,2.6132417E0,1.1021965E0,6.343393E0,5.008981E1,1.0432154E0,3.407367E0,4.9503517E0,2.4738216E0,4.569185E0,2.6064868E0,1.0542556E0,2.6398463E0],"tree_param":{"num_deleted":"0","num_feature":"35","num_nodes":"79","size_leaf_vector":"1"}},{"base_weights":[-9.553617E-3,-3.155777E-2,1.675863E-1,-3.8176947E-3,-2.5831425E-1,1.0497794E0,7.7956215E-2,-4.4964418E-2,1.4966252E-1,-2.5393413E-2,-4.4840708E-1,5.5122614E-1,1.0020017E-1,1.5240507E-1,-6.6100186E-1,-9.918434E-2,1.2509486E-1,8.8443935E-2,1.3771518E0,-3.4946138E-1,3.002992E-1,2.6837537E-1,-5.6820935E-1,-1.15515895E-1,2.1634866E-1,3.8477E-3,6.5881544E-1,2.7990872E-3,-2.4511659E-1,-8.413558E-2,-1.0357424E0,1.3435699E-2,4.6668983E-1,-3.1227356E-1,1.8576108E-1,2.3642828E0,-4.573114E-2,3.7679356E-1,-5.74865E-1,8.8946596E-2,3.9028883E-1,7.624736E-1,-2.0162873E-1,-3.803572E-1,-4.147338E-1,-3.9390162E-1,2.4228771E-1,9.5620763E-1,-2.1900289E-1,-4.821418E-2,1.1214961E-2,-6.1746743E-2,-4.5672E-1,-3.1439435E-2,1.1628521E-1,2.7095637E-1,1.6491082E-2,-1.9365124E-1,3.5132516E-2,9.61059E-2,-1.3729846E-1,8.529373E-1,2.257392E-1,-1.2279407E-1,3.3443797E-1,-2.7465084E-1,4.5038477E-2,2.2760333E-1,-4.409299E-2,-3.3917837E-2,3.4531197E-1,2.795029E-1,-1.7597462E-1,-3.6818266E-2,-2.8171784E-1,1.2006692E-1,-3.4393954E-1,4.186976E-1,4.915999E-2],"categories":[],"categories_nodes":[],"categories_segments":[],"categories_sizes":[],"default_left":[0,0,0,0,0,0,0,0,0,0,0,0,0,0,0,0,0,0,0,0,0,0,0,0,0,0,0,0,0,0,0,0,0,0,0,0,0,0,0,0,0,0,0,0,0,0,0,0,0,0,0,0,0,0,0,0,0,0,0,0,0,0,0,0,0,0,0,0,0,0,0,0,0,0,0,0,0,0,0],"id":15,"left_children":[1,3,5,7,9,11,13,15,17,19,21,-1,23,25,27,29,31,33,35,37,39,41,43,-1,-1,45,47,-1,-1,49,51,53,55,57,59,61,-1,63,65,67,-1,69,-1,-1,71,73,75,77,-1,-1,-1,-1,-1,-1,-1,-1,-1,-1,-1,-1,-1,-1,-1,-1,-1,-1,-1,-1,-1,-1,-1,-1,-1,-1,-1,-1,-1,-1,-1],"loss_changes":[2.4773946E0,3.5529504E0,5.4718533E0,3.1922665E0,2.7146797E0,4.6008544E0,3.6678357E0,3.6872811E0,7.9091725E0,3.1370597E0,3.058516E0,0E0,1.4704188E0,4.4900484E0,6.4802146E-1,4.1799383E0,3.685611E0,4.069384E0,7.922367E0,2.649517E0,3.0282943E0,3.0800288E0,2.6220798E0,0E0,0E0,4.56979E0,6.289978E0,0E0,0E0,2.7889583E0,1.5846877E0,3.3134472E0,4.230295E0,3.0049307E0,7.3682804E0,2.566719E-1,0E0,2.8489268E0,3.0362089E0,2.2203827E0,0E0,1.5218465E0,0E0,0E0,6.453156E0,2.5550478E0,7.0641165E0,3.8048124E0,0E0,0E0,0E0,0E0,0E0,0E0,0E0,0E0,0E0,0E0,0E0,0E0,0E0,0E0,0E0,0E0,0E0,0E0,0E0,0E0,0E0,0E0,0E0,0E0,0E0,0E0,0E0,0E0,0E0,0E0,0E0],"parents":[2147483647,0,0,1,1,2,2,3,3,4,4,5,5,6,6,7,7,8,8,9,9,10,10,12,12,13,13,14,14,15,15,16,16,17,17,18,18,19,19,20,20,21,21,22,22,25,25,26,26,29,29,30,30,31,31,32,32,33,33,34,34,35,35,37,37,38,38,39,39,41,41,44,44,45,45,46,46,47,47],"right_children":[2,4,6,8,10,12,14,16,18,20,22,-1,24,26,28,30,32,34,36,38,40,42,44,-1,-1,46,48,-1,-1,50,52,54,56,58,60,62,-1,64,66,68,-1,70,-1,-1,72,74,76,78,-1,-1,-1,-1,-1,-1,-1,-1,-1,-1,-1,-1,-1,-1,-1,-1,-1,-1,-1,-1,-1,-1,-1,-1,-1,-1,-1,-1,-1,-1,-1],"split_conditions":[1.76E2,6.5E1,1.06545E3,1E0,3E0,3.0055555E1,3.333333E-2,1.8427406E1,1E0,5.8E1,6.909091E-1,5.5122614E-1,4.0425012E-1,3.53E2,1.5E1,1.7929834E1,4.7E1,2.308434E1,1.9E1,4.0743423E-1,1.63E2,3E0,3.6E1,-1.15515895E-1,2.1634866E-1,5.2902627E0,1.67421E1,2.7990872E-3,-2.4511659E-1,9.3333334E-1,3E0,1E0,6.2E1,4.2E1,2.875E2,5.65E1,-4.573114E-2,4.0394425E-1,1.4699601E1,8.5E1,3.9028883E-1,1.712E2,-2.0162873E-1,-3.803572E-1,3.6E1,3E0,1.6E2,5.69E2,-2.1900289E-1,-4.821418E-2,1.1214961E-2,-6.1746743E-2,-4.5672E-1,-3.1439435E-2,1.1628521E-1,2.7095637E-1,1.6491082E-2,-1.9365124E-1,3.5132516E-2,9.61059E-2,-1.3729846E-1,8.529373E-1,2.257392E-1,-1.2279407E-1,3.3443797E-1,-2.7465084E-1,4.5038477E-2,2.2760333E-1,-4.409299E-2,-3.3917837E-2,3.4531197E-1,2.795029E-1,-1.7597462E-1,-3.6818266E-2,-2.8171784E-1,1.2006692E-1,-3.4393954E-1,4.186976E-1,4.915999E-2],"split_indices":[8,8,28,7,26,2,6,22,14,24,23,0,5,1,1,22,29,2,8,5,8,7,29,0,0,22,22,0,0,23,30,34,29,24,1,1,0,5,22,29,0,1,0,0,24,30,24,1,0,0,0,0,0,0,0,0,0,0,0,0,0,0,0,0,0,0,0,0,0,0,0,0,0,0,0,0,0,0,0],"split_type":[0,0,0,0,0,0,0,0,0,0,0,0,0,0,0,0,0,0,0,0,0,0,0,0,0,0,0,0,0,0,0,0,0,0,0,0,0,0,0,0,0,0,0,0,0,0,0,0,0,0,0,0,0,0,0,0,0,0,0,0,0,0,0,0,0,0,0,0,0,0,0,0,0,0,0,0,0,0,0],"sum_hessian":[6.332289E2,5.639922E2,6.923672E1,5.0342313E2,6.0569035E1,5.397631E0,6.383909E1,3.9755035E2,1.0587278E2,2.772777E1,3.2841263E1,2.4393206E0,2.9583106E0,5.8717182E1,5.1219063E0,3.017578E2,9.579255E1,1.0186454E2,4.008239E0,1.386197E1,1.3865801E1,4.5254054E0,2.8315859E1,1.8738737E0,1.0844368E0,4.6178226E1,1.2538957E1,1.1447611E0,3.9771452E0,2.9805838E2,3.6994147E0,7.297734E1,2.2815203E1,1.9472963E1,8.239158E1,2.1044312E0,1.9038075E0,3.1241753E0,1.0737794E1,1.2346874E1,1.5189264E0,3.0908303E0,1.4345748E0,3.7877402E0,2.4528118E1,1.7062963E1,2.9115263E1,1.0584066E1,1.9548907E0,1.8264018E2,1.154182E2,1.8934156E0,1.8059992E0,5.600183E1,1.6975515E1,1.0494944E1,1.2320258E1,1.06806755E1,8.792287E0,6.855357E1,1.3838008E1,1.0334806E0,1.0709504E0,1.7284395E0,1.3957359E0,7.126593E0,3.611201E0,2.6391525E0,9.707722E0,1.1680247E0,1.9228058E0,2.2758229E0,2.2252295E1,1.2213039E1,4.849924E0,2.6781374E1,2.3338892E0,6.318333E0,4.265733E0],"tree_param":{"num_deleted":"0","num_feature":"35","num_nodes":"79","size_leaf_vector":"1"}},{"base_weights":[-6.8078614E-3,-1.6437846E-3,-7.2194105E-1,-1.1205067E-2,4.0663803E-1,-3.661249E-1,-1.2986587E-2,-2.1177656E-3,-3.865542E-1,-1.601183E-1,5.9320444E-1,-2.1833533E-2,2.9627538E-1,-9.70606E-1,1.3914046E-1,7.2564393E-1,-9.004434E-2,1.2674816E-2,-1.2554109E-1,9.7371733E-1,4.8257995E-2,-1.6557843E-3,-1.1345639E0,3.4692246E-1,-2.081151E-1,-8.4586225E-2,8.609055E-1,1.6481085E-2,-5.9143256E-2,-4.4525396E-2,2.2533219E-1,4.9292177E-1,1.1715596E-1,7.787783E-2,-1.8063995E-1,-3.831602E-1,-6.847841E-2,6.631522E-2,-2.2987314E-1,3.207287E-1,5.0465398E-2],"categories":[],"categories_nodes":[],"categories_segments":[],"categories_sizes":[],"default_left":[0,0,0,0,0,0,0,0,0,0,0,0,0,0,0,0,0,0,0,0,0,0,0,0,0,0,0,0,0,0,0,0,0,0,0,0,0,0,0,0,0],"id":16,"left_children":[1,3,5,7,9,-1,-1,11,13,-1,15,17,19,21,23,25,-1,27,29,31,33,-1,35,-1,37,-1,39,-1,-1,-1,-1,-1,-1,-1,-1,-1,-1,-1,-1,-1,-1],"loss_changes":[2.3128428E0,2.4369829E0,1.4661095E0,2.0792341E0,2.8227925E0,0E0,0E0,3.515201E0,4.559236E0,0E0,1.6841693E0,2.0070682E0,6.17523E0,1.0936599E0,3.2285511E0,1.7536669E0,0E0,3.7473633E0,2.9192145E0,3.2122478E0,4.027002E0,0E0,4.759407E-1,0E0,1.88278E0,0E0,1.2652693E0,0E0,0E0,0E0,0E0,0E0,0E0,0E0,0E0,0E0,0E0,0E0,0E0,0E0,0E0],"parents":[2147483647,0,0,1,1,2,2,3,3,4,4,7,7,8,8,10,10,11,11,12,12,13,13,14,14,15,15,17,17,18,18,19,19,20,20,22,22,24,24,26,26],"right_children":[2,4,6,8,10,-1,-1,12,14,-1,16,18,20,22,24,26,-1,28,30,32,34,-1,36,-1,38,-1,40,-1,-1,-1,-1,-1,-1,-1,-1,-1,-1,-1,-1,-1,-1],"split_conditions":[1.1885E3,6.18E2,1.9531667E2,3.838E2,2E0,-3.661249E-1,-1.2986587E-2,1.86E2,1.5375E2,-1.601183E-1,3.076923E-2,9.459459E-3,7.26E1,9.375E-3,1.914E2,3.0293137E1,-9.004434E-2,3.52E1,1.4E1,2.3025E2,1.14E2,-1.6557843E-3,7.017544E-3,3.4692246E-1,3E0,-8.4586225E-2,1E0,1.6481085E-2,-5.9143256E-2,-4.4525396E-2,2.2533219E-1,4.9292177E-1,1.1715596E-1,7.787783E-2,-1.8063995E-1,-3.831602E-1,-6.847841E-2,6.631522E-2,-2.2987314E-1,3.207287E-1,5.0465398E-2],"split_indices":[8,8,1,8,7,0,0,8,1,0,6,3,1,6,1,2,0,8,30,8,29,0,3,0,26,0,34,0,0,0,0,0,0,0,0,0,0,0,0,0,0],"split_type":[0,0,0,0,0,0,0,0,0,0,0,0,0,0,0,0,0,0,0,0,0,0,0,0,0,0,0,0,0,0,0,0,0,0,0,0,0,0,0,0,0],"sum_hessian":[6.255984E2,6.2210834E2,3.4900331E0,6.088233E2,1.3285074E1,1.5518756E0,1.9381577E0,5.954138E2,1.3409482E1,1.8913186E0,1.1393756E1,5.593806E2,3.6033195E1,5.9512525E0,7.4582295E0,1.00862055E1,1.3075508E0,4.2037875E2,1.3900188E2,8.872523E0,2.7160673E1,1.0143368E0,4.936916E0,1.305041E0,6.153188E0,1.0653837E0,9.020822E0,3.5051544E2,6.98633E1,1.3627632E2,2.7255504E0,3.2849383E0,5.587585E0,2.0953136E1,6.207537E0,3.9119914E0,1.0249243E0,3.8198824E0,2.333306E0,6.518314E0,2.5025077E0],"tree_param":{"num_deleted":"0","num_feature":"35","num_nodes":"41","size_leaf_vector":"1"}},{"base_weights":[-5.366899E-3,-2.6784845E-2,1.383294E-1,1.7148558E-4,-2.159916E-1,-8.8515066E-2,4.267936E-1,1.173439E-1,-4.3536853E-2,-9.206967E-2,-6.211118E-1,2.4594977E-1,-3.6947402E-1,7.2995836E-1,-3.134785E-1,5.046255E-1,1.9008927E-2,-3.4156883E-1,3.8722611E-4,-2.1950735E-1,2.9528755E-1,-7.6535845E-1,1.659947E-1,6.8110466E-2,9.162335E-1,-4.6280065E-1,1.601577E-1,-1.6487598E-1,8.704116E-1,2.3637836E-1,-7.7970636E-1,-2.2176646E-1,7.1347463E-1,-1.1998064E-1,3.1645593E-1,3.2254508E-1,-7.3631173E-1,-1.0227301E-1,9.474564E-2,2.6759628E-2,-5.379286E-1,-4.1339666E-1,5.682575E-1,-9.1978484E-1,-2.212717E-1,1.8205154E-1,-1.1112702E-1,4.3088192E-1,-1.9115013E-1,4.3865198E-1,-1.790262E-3,3.866241E-1,-5.931645E-1,9.9837935E-1,-1.7025197E-1,-2.8394344E-1,6.409321E-1,-9.449685E-1,-2.9457407E-2,8.69048E-2,-2.429488E-1,2.639393E-1,-7.6205656E-2,4.2295296E-2,-1.0406711E-1,1.5366387E-1,-1.2997255E-1,-6.919662E-2,3.0813015E-1,-4.3420917E-1,-1.343293E-1,-1.1742487E-1,-6.258016E-4,3.903436E-2,-2.5136983E-1,-6.2322818E-2,2.596981E-1,2.8044717E-2,-3.1244385E-1,1.1319041E-1,-2.3496386E-1,-1.0953551E-1,2.6411292E-1,-3.202653E-2,-2.9966542E-1,7.596435E-2,-2.0424661E-1,-5.333598E-2,3.2087246E-1,-2.2285111E-1,4.7174208E-2,-5.925968E-2,2.7741596E-1,-2.4685887E-1,-2.0023856E-2,3.301969E-1,-8.583008E-2,-1.5434614E-1,6.3764445E-2,6.924541E-2,-2.0538773E-1,3.1140703E-1,9.039052E-3,-7.220431E-2,-4.0157902E-1],"categories":[],"categories_nodes":[],"categories_segments":[],"categories_sizes":[],"default_left":[0,0,0,0,0,0,0,0,0,0,0,0,0,0,0,0,0,0,0,0,0,0,0,0,0,0,0,0,0,0,0,0,0,0,0,0,0,0,0,0,0,0,0,0,0,0,0,0,0,0,0,0,0,0,0,0,0,0,0,0,0,0,0,0,0,0,0,0,0,0,0,0,0,0,0,0,0,0,0,0,0,0,0,0,0,0,0,0,0,0,0,0,0,0,0,0,0,0,0,0,0,0,0,0,0],"id":17,"left_children":[1,3,5,7,9,11,13,15,17,19,21,23,25,27,29,31,33,35,37,39,41,43,45,47,49,51,-1,-1,53,55,57,59,61,63,65,67,69,71,73,75,77,79,81,83,85,-1,-1,87,89,-1,-1,91,93,95,97,99,101,103,-1,-1,-1,-1,-1,-1,-1,-1,-1,-1,-1,-1,-1,-1,-1,-1,-1,-1,-1,-1,-1,-1,-1,-1,-1,-1,-1,-1,-1,-1,-1,-1,-1,-1,-1,-1,-1,-1,-1,-1,-1,-1,-1,-1,-1,-1,-1],"loss_changes":[1.9230309E0,2.772423E0,5.3418417E0,2.4469202E0,3.3458984E0,4.432596E0,8.275291E0,4.9337864E0,4.5554695E0,2.6851532E0,1.9100447E0,2.5234985E0,2.3976533E0,5.1037397E0,3.0341642E0,4.1398463E0,4.360637E0,1.19555435E1,2.9572217E0,3.1914563E0,2.8594203E0,9.2657137E-1,9.942804E-1,1.7964523E0,2.2584498E0,2.8489165E0,0E0,0E0,3.3099499E0,1.4172392E0,6.109674E-1,2.226793E0,3.54187E0,4.3115654E0,5.1490574E0,7.0028486E0,5.1664658E0,4.2346773E0,5.356225E0,4.8616023E0,5.7302785E0,1.5679238E0,3.2974455E0,5.4674435E-1,1.1078953E0,0E0,0E0,3.2625985E0,2.2928724E0,0E0,0E0,1.3623407E0,2.4726782E0,3.092411E0,5.621537E-1,8.303846E-1,8.439175E-1,1.0398479E0,0E0,0E0,0E0,0E0,0E0,0E0,0E0,0E0,0E0,0E0,0E0,0E0,0E0,0E0,0E0,0E0,0E0,0E0,0E0,0E0,0E0,0E0,0E0,0E0,0E0,0E0,0E0,0E0,0E0,0E0,0E0,0E0,0E0,0E0,0E0,0E0,0E0,0E0,0E0,0E0,0E0,0E0,0E0,0E0,0E0,0E0,0E0],"parents":[2147483647,0,0,1,1,2,2,3,3,4,4,5,5,6,6,7,7,8,8,9,9,10,10,11,11,12,12,13,13,14,14,15,15,16,16,17,17,18,18,19,19,20,20,21,21,22,22,23,23,24,24,25,25,28,28,29,29,30,30,31,31,32,32,33,33,34,34,35,35,36,36,37,37,38,38,39,39,40,40,41,41,42,42,43,43,44,44,47,47,48,48,51,51,52,52,53,53,54,54,55,55,56,56,57,57],"right_children":[2,4,6,8,10,12,14,16,18,20,22,24,26,28,30,32,34,36,38,40,42,44,46,48,50,52,-1,-1,54,56,58,60,62,64,66,68,70,72,74,76,78,80,82,84,86,-1,-1,88,90,-1,-1,92,94,96,98,100,102,104,-1,-1,-1,-1,-1,-1,-1,-1,-1,-1,-1,-1,-1,-1,-1,-1,-1,-1,-1,-1,-1,-1,-1,-1,-1,-1,-1,-1,-1,-1,-1,-1,-1,-1,-1,-1,-1,-1,-1,-1,-1,-1,-1,-1,-1,-1,-1],"split_conditions":[1E0,1E0,3.1185715E1,2.5333334E1,9.459459E-3,4.3E1,1E0,2E0,2.9278736E1,3E0,2.665416E1,4E0,4.744851E1,4.435E2,8.975E1,1.5E1,9.3333334E-1,8.787879E-1,6.147634E0,3.760304E1,2.5611458E1,5.1890907E1,2.9E1,8.125E-1,5E0,2.4E1,1.601577E-1,-1.6487598E-1,1E0,9.1008093E2,7E0,8.363636E-1,9.655172E-1,1.8423334E1,9.756098E-3,1E0,9.0909094E-1,1.4864865E-2,1E0,2.3674E3,3.4E1,5.217391E-1,7.777778E-1,6.04E1,1.7283952E-2,1.8205154E-1,-1.1112702E-1,3.97634E-1,1.7941668E1,4.3865198E-1,-1.790262E-3,1E0,2.6283333E1,9.7214484E-1,2.1E1,5.419167E2,4.1221243E-1,1.3407E3,-2.9457407E-2,8.69048E-2,-2.429488E-1,2.639393E-1,-7.6205656E-2,4.2295296E-2,-1.0406711E-1,1.5366387E-1,-1.2997255E-1,-6.919662E-2,3.0813015E-1,-4.3420917E-1,-1.343293E-1,-1.1742487E-1,-6.258016E-4,3.903436E-2,-2.5136983E-1,-6.2322818E-2,2.596981E-1,2.8044717E-2,-3.1244385E-1,1.1319041E-1,-2.3496386E-1,-1.0953551E-1,2.6411292E-1,-3.202653E-2,-2.9966542E-1,7.596435E-2,-2.0424661E-1,-5.333598E-2,3.2087246E-1,-2.2285111E-1,4.7174208E-2,-5.925968E-2,2.7741596E-1,-2.4685887E-1,-2.0023856E-2,3.301969E-1,-8.583008E-2,-1.5434614E-1,6.3764445E-2,6.924541E-2,-2.0538773E-1,3.1140703E-1,9.039052E-3,-7.220431E-2,-4.0157902E-1],"split_indices":[31,12,2,2,3,1,34,4,2,21,22,4,22,28,1,2,23,23,22,2,2,2,29,23,4,25,0,0,16,25,0,23,23,2,3,10,23,6,14,25,29,23,23,28,3,0,0,5,2,0,0,10,2,23,24,25,5,28,0,0,0,0,0,0,0,0,0,0,0,0,0,0,0,0,0,0,0,0,0,0,0,0,0,0,0,0,0,0,0,0,0,0,0,0,0,0,0,0,0,0,0,0,0,0,0],"split_type":[0,0,0,0,0,0,0,0,0,0,0,0,0,0,0,0,0,0,0,0,0,0,0,0,0,0,0,0,0,0,0,0,0,0,0,0,0,0,0,0,0,0,0,0,0,0,0,0,0,0,0,0,0,0,0,0,0,0,0,0,0,0,0,0,0,0,0,0,0,0,0,0,0,0,0,0,0,0,0,0,0,0,0,0,0,0,0,0,0,0,0,0,0,0,0,0,0,0,0,0,0,0,0,0,0],"sum_hessian":[6.2262756E2,5.425709E2,8.005665E1,4.7578485E2,6.678608E1,4.520286E1,3.4853786E1,1.2880428E2,3.4698056E2,5.2082016E1,1.4704066E1,2.0693314E1,2.4509546E1,2.4737097E1,1.0116688E1,2.5245586E1,1.0355869E2,4.3699055E1,3.032815E2,3.9515144E1,1.2566872E1,1.2450073E1,2.2539935E0,1.7224842E1,3.4684715E0,2.2656496E1,1.8530508E0,2.1586447E0,2.2578453E1,4.868227E0,5.2484603E0,5.623792E0,1.9621794E1,7.098555E1,3.2573143E1,1.6359238E1,2.7339817E1,1.4521086E2,1.5807065E2,2.279864E1,1.6716505E1,3.3514366E0,9.215435E0,9.159773E0,3.2903001E0,1.1651559E0,1.0888375E0,6.9033446E0,1.0321498E1,1.8108999E0,1.6575717E0,2.7529695E0,1.9903526E1,2.0142244E1,2.4362094E0,2.2598388E0,2.6083882E0,3.9130144E0,1.3354462E0,3.2792034E0,2.344589E0,1.6820759E1,2.801035E0,3.3191383E1,3.7794163E1,2.6080042E1,6.4931016E0,9.540714E0,6.8185244E0,6.732714E0,2.0607103E1,3.661933E1,1.0859153E2,1.5312418E2,4.94647E0,1.8405903E1,4.392736E0,7.7779527E0,8.938553E0,1.0615383E0,2.2898982E0,2.2668197E0,6.9486156E0,1.0204705E0,8.139302E0,1.8397508E0,1.4505494E0,3.90426E0,2.9990845E0,3.5569382E0,6.7645597E0,1.6234541E0,1.1295154E0,1.3465034E1,6.4384933E0,1.8789257E1,1.3529869E0,1.1015893E0,1.33462E0,1.174667E0,1.0851718E0,1.1568558E0,1.4515324E0,1.9806458E0,1.9323685E0],"tree_param":{"num_deleted":"0","num_feature":"35","num_nodes":"105","size_leaf_vector":"1"}},{"base_weights":[-8.475365E-3,-4.712666E-2,5.8208264E-2,6.4623165E-3,-3.056153E-1,6.8232054E-1,2.3092939E-2,-2.0814743E-2,4.6692133E-1,-5.093119E-1,5.3598985E-2,8.558743E-1,-1.7868E-1,1.0220419E0,5.4385923E-3,-3.19364E-2,2.3480396E-1,7.926948E-1,-1.0971529E-1,-6.3405776E-1,1.778176E-1,4.2388183E-1,-3.1874892E-1,1.090574E0,-1.1789946E-1,4.289134E-3,4.2190766E-1,-1.2729144E-1,8.5187495E-2,-7.477884E-3,-4.1478625E-1,-1.0786726E-1,9.7183836E-1,-6.41526E-1,6.0944575E-1,-7.0527256E-1,1.3640848E-1,-5.171496E-1,5.894551E-1,8.5361534E-1,-2.7572092E-2,-5.098025E-1,3.5833797E-1,-9.220011E-2,1.3473009E0,2.5912832E-2,-4.484776E-1,5.2018934E-3,3.738355E-1,-7.35073E-3,1.6466737E-1,-1.9005398E-1,2.9516286E-1,1.229369E-1,3.8735813E-1,-2.9464746E-1,-8.891631E-3,4.0932426E-1,-1.0851693E-1,4.0429797E-2,-2.389214E-1,5.8763996E-2,-2.9000133E-1,-8.124616E-2,2.863696E-1,3.6159563E-1,-7.741922E-3,-1.527177E-1,1.8073116E-1,2.3446683E-2,-2.209207E-1,-8.946368E-2,2.3937827E-1,4.515511E-1,1.3599157E-1,-2.462863E-1,3.4480743E-2,-2.4235748E-1,-6.2857114E-2,1.6081084E-1,-1.8110713E-2,-1.6907442E-1,1.3738258E-1],"categories":[],"categories_nodes":[],"categories_segments":[],"categories_sizes":[],"default_left":[0,0,0,0,0,0,0,0,0,0,0,0,0,0,0,0,0,0,0,0,0,0,0,0,0,0,0,0,0,0,0,0,0,0,0,0,0,0,0,0,0,0,0,0,0,0,0,0,0,0,0,0,0,0,0,0,0,0,0,0,0,0,0,0,0,0,0,0,0,0,0,0,0,0,0,0,0,0,0,0,0,0,0],"id":18,"left_children":[1,3,5,7,9,11,13,15,17,19,21,23,-1,25,27,29,-1,31,33,35,37,39,41,43,-1,-1,-1,45,47,49,51,-1,53,55,57,59,-1,61,63,65,67,69,71,-1,73,75,77,79,81,-1,-1,-1,-1,-1,-1,-1,-1,-1,-1,-1,-1,-1,-1,-1,-1,-1,-1,-1,-1,-1,-1,-1,-1,-1,-1,-1,-1,-1,-1,-1,-1,-1,-1],"loss_changes":[1.5942537E0,5.424525E0,4.959712E0,4.094452E0,4.9473596E0,3.1840825E0,3.8031986E0,2.7772324E0,3.5116787E0,3.7989101E0,3.6146052E0,3.660594E0,0E0,1.4303625E0,2.2678177E0,2.8504984E0,0E0,2.7791834E0,3.244034E0,3.1596766E0,2.4185333E0,2.56164E0,1.884291E0,3.840333E0,0E0,0E0,0E0,3.9692903E0,3.0870368E0,2.736273E0,6.2159905E0,0E0,1.3478842E0,9.6627915E-1,3.194744E0,2.768322E0,0E0,1.241019E0,1.8627623E0,2.113861E0,2.535874E0,1.4793959E0,1.2429243E0,0E0,4.8227406E-1,4.2709775E0,2.0659928E0,3.7141807E0,2.5458064E0,0E0,0E0,0E0,0E0,0E0,0E0,0E0,0E0,0E0,0E0,0E0,0E0,0E0,0E0,0E0,0E0,0E0,0E0,0E0,0E0,0E0,0E0,0E0,0E0,0E0,0E0,0E0,0E0,0E0,0E0,0E0,0E0,0E0,0E0],"parents":[2147483647,0,0,1,1,2,2,3,3,4,4,5,5,6,6,7,7,8,8,9,9,10,10,11,11,13,13,14,14,15,15,17,17,18,18,19,19,20,20,21,21,22,22,23,23,27,27,28,28,29,29,30,30,32,32,33,33,34,34,35,35,37,37,38,38,39,39,40,40,41,41,42,42,44,44,45,45,46,46,47,47,48,48],"right_children":[2,4,6,8,10,12,14,16,18,20,22,24,-1,26,28,30,-1,32,34,36,38,40,42,44,-1,-1,-1,46,48,50,52,-1,54,56,58,60,-1,62,64,66,68,70,72,-1,74,76,78,80,82,-1,-1,-1,-1,-1,-1,-1,-1,-1,-1,-1,-1,-1,-1,-1,-1,-1,-1,-1,-1,-1,-1,-1,-1,-1,-1,-1,-1,-1,-1,-1,-1,-1,-1],"split_conditions":[1.8847E3,1.6183667E3,1.9754559E3,1.5093203E3,2.2333333E2,8.3E1,1.8E1,8.3786514E1,1.5708667E3,4E0,2.05825E3,2.46935E3,-1.7868E-1,2.1756636E3,7.5E1,1.2E1,2.3480396E-1,2E0,1.972313E-2,4E0,1.6E1,6.96864E-4,7E0,3E1,-1.1789946E-1,4.289134E-3,4.2190766E-1,4.3416777E-1,1.2837051E1,1.1E1,1E0,-1.0786726E-1,3.188406E-3,8.888889E-1,3.0444107E1,2.6E1,1.3640848E-1,4.335509E1,2.9430384E1,8E0,4.06E2,3.2875E2,1.4604116E-2,-9.220011E-2,1.2244898E-2,3.5573673E1,8.75E-1,8.695652E-1,1.9E1,-7.35073E-3,1.6466737E-1,-1.9005398E-1,2.9516286E-1,1.229369E-1,3.8735813E-1,-2.9464746E-1,-8.891631E-3,4.0932426E-1,-1.0851693E-1,4.0429797E-2,-2.389214E-1,5.8763996E-2,-2.9000133E-1,-8.124616E-2,2.863696E-1,3.6159563E-1,-7.741922E-3,-1.527177E-1,1.8073116E-1,2.3446683E-2,-2.209207E-1,-8.946368E-2,2.3937827E-1,4.515511E-1,1.3599157E-1,-2.462863E-1,3.4480743E-2,-2.4235748E-1,-6.2857114E-2,1.6081084E-1,-1.8110713E-2,-1.6907442E-1,1.3738258E-1],"split_indices":[25,28,25,28,1,29,24,22,28,4,28,28,0,28,29,30,0,30,6,21,1,3,30,29,0,0,0,5,22,30,19,0,3,23,2,29,0,2,2,0,1,1,6,0,3,2,23,23,1,0,0,0,0,0,0,0,0,0,0,0,0,0,0,0,0,0,0,0,0,0,0,0,0,0,0,0,0,0,0,0,0,0,0],"split_type":[0,0,0,0,0,0,0,0,0,0,0,0,0,0,0,0,0,0,0,0,0,0,0,0,0,0,0,0,0,0,0,0,0,0,0,0,0,0,0,0,0,0,0,0,0,0,0,0,0,0,0,0,0,0,0,0,0,0,0,0,0,0,0,0,0,0,0,0,0,0,0,0,0,0,0,0,0,0,0,0,0,0,0],"sum_hessian":[6.1648474E2,3.904593E2,2.2602547E2,3.2421844E2,6.6240845E1,1.1058022E1,2.1496745E2,3.0698764E2,1.7230797E1,4.2004093E1,2.4236755E1,1.0026577E1,1.0314441E0,2.7451437E0,2.122223E2,3.037436E2,3.2440467E0,1.077099E1,6.4598064E0,3.561547E1,6.3886213E0,1.2082682E1,1.2154074E1,8.547083E0,1.4794943E0,1.0442203E0,1.7009233E0,7.9428825E1,1.3279347E2,2.8646237E2,1.728123E1,1.3137639E0,9.457227E0,3.7756858E0,2.6841207E0,3.37595E1,1.8559728E0,2.2811072E0,4.107514E0,5.733868E0,6.3488135E0,9.671992E0,2.482081E0,1.2955481E0,7.251535E0,5.4399734E1,2.5029095E1,1.0477727E2,2.8016209E1,2.788846E2,7.5777364E0,1.5417287E1,1.8639442E0,4.25385E0,5.2033763E0,2.036728E0,1.7389578E0,1.2823366E0,1.401784E0,3.257127E0,3.0502373E1,1.1002082E0,1.1808991E0,1.3008022E0,2.806712E0,3.8311226E0,1.9027457E0,3.7074008E0,2.6414127E0,2.872866E0,6.7991266E0,1.1243769E0,1.357704E0,5.582147E0,1.6693878E0,4.3924966E0,5.0007236E1,9.044931E0,1.5984163E1,1.0730757E1,9.404651E1,1.8373232E0,2.6178885E1],"tree_param":{"num_deleted":"0","num_feature":"35","num_nodes":"83","size_leaf_vector":"1"}},{"base_weights":[-5.478074E-3,-1.3465869E-3,-5.970359E-1,-2.1851793E-2,1.2509732E-1,-3.1960243E-1,3.4330345E-3,-7.618655E-3,-4.2281473E-1,2.581935E-1,-1.7382108E-1,-2.3894984E-2,2.8770468E-1,-1.4729004E-2,-8.9932543E-1,3.719562E-1,-1.3451673E-1,-3.3279485E-1,3.5078225E-1,-3.5629268E-3,-2.8536275E-1,7.742648E-1,-1.3505782E-1,8.8722813E-1,-3.304804E-1,-3.6492237E-1,-1.939013E-2,1.2088001E0,2.7240232E-1,-4.457663E-1,4.6643788E-1,-6.8658835E-1,3.3237897E-2,-1.4715824E-1,7.109579E-1,-3.3325716E-3,1.8522114E-1,-1.6737242E-1,-4.814054E-3,2.791678E-1,-1.3722315E-1,7.659753E-2,-1.7787129E-1,3.6718294E-1,3.4906525E-2,-1.6103694E-1,1.4770448E-1,-1.6753452E-1,1.747711E-1,1.0848907E-1,5.5746454E-1,1.0348648E-1,-2.3605001E-1,-2.1828754E-1,2.06614E-1,-1.2885955E-1,2.4488047E-1,-2.533658E-1,1.2324275E-1,1.456409E-1,-2.0019644E-1,2.1802794E-2,2.7633092E-1],"categories":[],"categories_nodes":[],"categories_segments":[],"categories_sizes":[],"default_left":[0,0,0,0,0,0,0,0,0,0,0,0,0,0,0,0,0,0,0,0,0,0,0,0,0,0,0,0,0,0,0,0,0,0,0,0,0,0,0,0,0,0,0,0,0,0,0,0,0,0,0,0,0,0,0,0,0,0,0,0,0,0,0],"id":19,"left_children":[1,3,5,7,9,-1,-1,11,13,15,17,19,21,23,25,27,29,31,33,35,37,39,41,43,45,-1,47,49,51,53,55,57,59,-1,61,-1,-1,-1,-1,-1,-1,-1,-1,-1,-1,-1,-1,-1,-1,-1,-1,-1,-1,-1,-1,-1,-1,-1,-1,-1,-1,-1,-1],"loss_changes":[1.4960845E0,1.5823089E0,1.2219987E0,2.9933097E0,3.432952E0,0E0,0E0,2.4491265E0,3.4833245E0,2.7004642E0,2.3546362E0,2.563871E0,5.5795407E0,3.341273E0,2.2862172E0,3.525176E0,2.837808E0,2.7561154E0,2.3872688E0,2.109147E0,2.5452332E0,2.8363776E0,2.8491004E0,6.4837646E-1,1.7337208E0,0E0,1.3666692E0,1.874114E0,3.5481613E0,3.6264894E0,2.0074553E0,2.2154632E0,3.9127352E0,0E0,6.1967087E-1,0E0,0E0,0E0,0E0,0E0,0E0,0E0,0E0,0E0,0E0,0E0,0E0,0E0,0E0,0E0,0E0,0E0,0E0,0E0,0E0,0E0,0E0,0E0,0E0,0E0,0E0,0E0,0E0],"parents":[2147483647,0,0,1,1,2,2,3,3,4,4,7,7,8,8,9,9,10,10,11,11,12,12,13,13,14,14,15,15,16,16,17,17,18,18,19,19,20,20,21,21,22,22,23,23,24,24,26,26,27,27,28,28,29,29,30,30,31,31,32,32,34,34],"right_children":[2,4,6,8,10,-1,-1,12,14,16,18,20,22,24,26,28,30,32,34,36,38,40,42,44,46,-1,48,50,52,54,56,58,60,-1,62,-1,-1,-1,-1,-1,-1,-1,-1,-1,-1,-1,-1,-1,-1,-1,-1,-1,-1,-1,-1,-1,-1,-1,-1,-1,-1,-1,-1],"split_conditions":[1.1885E3,4.0840784E3,1.4945E3,3.484269E3,6.743399E3,-3.1960243E-1,3.4330345E-3,3.2016106E3,7.2E1,6.0633335E1,4E0,2.737303E3,1.7691333E2,2E0,3.677258E3,2E0,9.127391E0,3.846154E-3,7.610763E-1,8.6388E1,